{"learner":{"attributes":{"best_iteration":"149","best_ntree_limit":"150","scikit_learn":"{\"use_label_encoder\": null, \"n_estimators\": 150, \"objective\": \"binary:logistic\", \"max_depth\": 11, \"max_leaves\": null, \"max_bin\": null, \"grow_policy\": \"depthwise\", \"learning_rate\": 1.1959595959595961, \"verbosity\": null, \"booster\": null, \"tree_method\": \"gpu_hist\", \"gamma\": null, \"min_child_weight\": 12, \"max_delta_step\": null, \"subsample\": null, \"sampling_method\": null, \"colsample_bytree\": 0.2716728027064643, \"colsample_bylevel\": 0.4, \"colsample_bynode\": null, \"reg_alpha\": null, \"reg_lambda\": null, \"scale_pos_weight\": 3, \"base_score\": null, \"missing\": NaN, \"num_parallel_tree\": null, \"random_state\": null, \"n_jobs\": null, \"monotone_constraints\": null, \"interaction_constraints\": null, \"importance_type\": null, \"gpu_id\": null, \"validate_parameters\": null, \"predictor\": null, \"enable_categorical\": false, \"feature_types\": null, \"max_cat_to_onehot\": null, \"max_cat_threshold\": null, \"eval_metric\": null, \"early_stopping_rounds\": null, \"callbacks\": null, \"kwargs\": {\"alpha\": 11.12, \"lambda\": 0.0301010101010101, \"refresh_leaf\": 1}, \"classes_\": [0, 1], \"n_classes_\": 2, \"_estimator_type\": \"classifier\"}"},"feature_names":["player_card_1","player_card_2","player_card_3","player_card_4","player_card_5","player_card_6","player_card_7","dealer_card_1","dealer_card_2","dealer_card_3","dealer_card_4","dealer_card_5","dealer_card_6","dealer_card_7","action_taken_1_D","action_taken_1_H","action_taken_1_N","action_taken_1_P","action_taken_1_R","action_taken_1_S","action_taken_2_D","action_taken_2_H","action_taken_2_P","action_taken_2_R","action_taken_2_S","action_taken_2_None","action_taken_3_D","action_taken_3_H","action_taken_3_P","action_taken_3_S","action_taken_3_None","action_taken_4_D","action_taken_4_H","action_taken_4_S","action_taken_4_None","action_taken_5_H","action_taken_5_S","action_taken_5_None","action_taken_6_H","action_taken_6_S","action_taken_6_None"],"feature_types":["int","int","float","float","float","float","float","int","int","float","float","float","float","float","float","float","float","float","float","float","float","float","float","float","float","float","float","float","float","float","float","float","float","float","float","float","float","float","float","float","float"],"gradient_booster":{"model":{"gbtree_model_param":{"num_parallel_tree":"1","num_trees":"150","size_leaf_vector":"0"},"tree_info":[0,0,0,0,0,0,0,0,0,0,0,0,0,0,0,0,0,0,0,0,0,0,0,0,0,0,0,0,0,0,0,0,0,0,0,0,0,0,0,0,0,0,0,0,0,0,0,0,0,0,0,0,0,0,0,0,0,0,0,0,0,0,0,0,0,0,0,0,0,0,0,0,0,0,0,0,0,0,0,0,0,0,0,0,0,0,0,0,0,0,0,0,0,0,0,0,0,0,0,0,0,0,0,0,0,0,0,0,0,0,0,0,0,0,0,0,0,0,0,0,0,0,0,0,0,0,0,0,0,0,0,0,0,0,0,0,0,0,0,0,0,0,0,0,0,0,0,0,0,0],"trees":[{"base_weights":[8.0858785E-1,4.937476E-1,1.3576754E0,3.913001E-1,1.3479797E0,4.9682673E-2,4.130415E-1,2.4590111E-1,-3.837254E-1,7.9418325E-1,7.3965274E-2,3.3442438E-1,-0E0],"categories":[],"categories_nodes":[],"categories_segments":[],"categories_sizes":[],"default_left":[0,0,0,0,0,0,0,0,0,0,0,0,0],"id":0,"left_children":[1,3,-1,5,-1,7,9,11,-1,-1,-1,-1,-1],"loss_changes":[3.6731387E3,1.1701699E3,0E0,1.11926025E2,0E0,6.996822E1,1.2956309E3,4.184597E0,0E0,0E0,0E0,0E0,0E0],"parents":[2147483647,0,0,1,1,3,3,5,5,6,6,7,7],"right_children":[2,4,-1,6,-1,8,10,12,-1,-1,-1,-1,-1],"split_conditions":[1E0,1E0,1.3576754E0,1E0,1.3479797E0,9E0,9E0,1E0,-3.837254E-1,7.9418325E-1,7.3965274E-2,3.3442438E-1,-0E0],"split_indices":[19,29,0,30,0,8,8,32,0,0,0,0,0],"split_type":[0,0,0,0,0,0,0,0,0,0,0,0,0],"sum_hessian":[3.58945E4,1.82945E4,1.76E4,1.57625E4,2.532E3,9.7375E2,1.478875E4,6.5625E2,3.175E2,8.606E3,6.18275E3,5.61E2,9.525E1],"tree_param":{"num_deleted":"0","num_feature":"41","num_nodes":"13","size_leaf_vector":"0"}},{"base_weights":[-6.3142255E-2,2.2240442E-3,-1.1845065E0,-1.5187648E-1,9.9430805E-1,-1.3914634E0,-1.08977355E-1,-9.211839E-2,-9.855335E-1,-0E0,-3.1772888E0,-1.5572564E-1,-0E0,-5.427927E-1,-4.7808945E-2,-1.2053101E0,-4.6286747E-2,-6.424224E-2,3.8379878E-1,4.1826484E-1,-3.3986378E-1,-2.5428146E-1,-8.900582E-1,5.0936643E-2,-2.043339E-1,-1.320808E0,5.9080705E-2,4.8493315E-2,-3.0047455E-1,5.020382E-2,-2.220538E-1,-2.4936256E-1,-8.543177E-1,9.602977E-2,-2.9186282E-1,-1.3689401E0,-0E0,-0E0,2.4413152E-1,-7.351512E-1,2.77994E-1,-0E0,1.1564086E-1,-1.2128681E-1,-2.963741E0,-1.0679495E0,-1.7003989E0,-1.9429248E-2,-2.858226E0,-4.940755E-1,2.1499638E-1],"categories":[],"categories_nodes":[],"categories_segments":[],"categories_sizes":[],"default_left":[1,1,0,0,0,0,0,0,1,1,0,0,0,0,0,1,0,0,0,0,0,1,0,1,0,0,0,0,1,0,0,0,0,0,0,0,0,0,0,0,0,0,0,0,0,0,0,0,0,0,0],"id":1,"left_children":[1,3,5,7,-1,9,11,13,15,17,-1,19,-1,21,23,25,27,29,-1,-1,-1,31,-1,33,-1,35,37,-1,39,-1,-1,-1,-1,41,43,45,-1,-1,-1,47,-1,-1,-1,49,-1,-1,-1,-1,-1,-1,-1],"loss_changes":[2.0374207E3,3.3406946E3,3.239851E2,1.083329E3,0E0,2.2174307E3,2.5630221E0,4.033642E2,2.870813E2,9.990946E0,0E0,1.4265863E1,0E0,9.437799E1,2.2870088E2,1.8519507E2,9.206192E0,8.504581E0,0E0,0E0,0E0,5.928913E0,0E0,1.5752756E2,0E0,5.910681E1,2.427032E0,0E0,3.0026527E1,0E0,0E0,0E0,0E0,9.191742E-1,4.0830243E2,3.515625E-1,0E0,0E0,0E0,5.6024532E1,0E0,0E0,0E0,9.856451E1,0E0,0E0,0E0,0E0,0E0,0E0,0E0],"parents":[2147483647,0,0,1,1,2,2,3,3,5,5,6,6,7,7,8,8,9,9,11,11,13,13,14,14,15,15,16,16,17,17,21,21,23,23,25,25,26,26,28,28,33,33,34,34,35,35,39,39,43,43],"right_children":[2,4,6,8,-1,10,12,14,16,18,-1,20,-1,22,24,26,28,30,-1,-1,-1,32,-1,34,-1,36,38,-1,40,-1,-1,-1,-1,42,44,46,-1,-1,-1,48,-1,-1,-1,50,-1,-1,-1,-1,-1,-1,-1],"split_conditions":[8E0,8E0,1.1E1,1E0,9.9430805E-1,1E0,1E0,7E0,-1E-5,9E0,-3.1772888E0,1.1E1,-0E0,1E0,1E0,-1E-5,1E0,1E1,3.8379878E-1,4.1826484E-1,-3.3986378E-1,3E0,-8.900582E-1,-1E-5,-2.043339E-1,1E0,4E0,4.8493315E-2,-1E-5,5.020382E-2,-2.220538E-1,-2.4936256E-1,-8.543177E-1,1E0,1E0,1E0,-0E0,-0E0,2.4413152E-1,1E0,2.77994E-1,-0E0,1.1564086E-1,5E0,-2.963741E0,-1.0679495E0,-1.7003989E0,-1.9429248E-2,-2.858226E0,-4.940755E-1,2.1499638E-1],"split_indices":[3,10,3,16,0,30,16,10,10,10,0,10,0,19,19,3,21,3,0,0,0,3,0,3,0,20,3,0,3,0,0,0,0,30,30,30,0,0,0,30,0,0,0,3,0,0,0,0,0,0,0],"split_type":[0,0,0,0,0,0,0,0,0,0,0,0,0,0,0,0,0,0,0,0,0,0,0,0,0,0,0,0,0,0,0,0,0,0,0,0,0,0,0,0,0,0,0,0,0,0,0,0,0,0,0],"sum_hessian":[2.7616465E4,2.608598E4,1.5304841E3,2.1986414E4,4.0995654E3,1.2748293E3,2.556548E2,2.0528281E4,1.4581332E3,6.1096185E2,6.6386743E2,2.3087474E2,2.4780056E1,1.8151338E3,1.8713148E4,1.1720375E3,2.860957E2,5.3543695E2,7.5524925E1,2.9230465E1,2.0164429E2,7.689787E2,1.0461552E3,1.0331538E4,8.38161E3,1.0819943E3,9.0043205E1,1.8065826E2,1.05437454E2,2.3676613E2,2.986708E2,7.214103E2,4.7568413E1,9.159167E3,1.1723708E3,1.0387843E3,4.3210014E1,2.428279E1,6.5760414E1,6.95575E1,3.5879955E1,2.6895151E1,9.132271E3,1.0922683E3,8.01025E1,1.2488943E2,9.1389484E2,5.319668E1,1.636082E1,5.733788E2,5.188895E2],"tree_param":{"num_deleted":"0","num_feature":"41","num_nodes":"51","size_leaf_vector":"0"}},{"base_weights":[3.5869904E-2,-3.0589128E-2,7.3768944E-1,-3.5938993E-1,4.1739896E-1,6.7595905E-1,9.762343E-1,7.326801E-1,-3.8892695E-1,5.1032454E-1,-3.3486593E-1,8.6209303E-1,-0E0,3.087424E0,6.087501E-1,1.1626685E0,2.2337857E-1,-5.4482627E-1,-1.2136556E-1,1.5533681E-1,6.599761E-1,2.1943761E-2,-4.954537E-1,8.941912E-1,-0E0,-3.821617E-1,5.8878493E-1,1.0825E0,-0E0,-5.5643696E-1,1.2255764E0,-1.294831E-1,1.175621E0,6.070016E-1,1.4406347E-1,1.5334616E0,6.455466E-1,4.2583013E-1,-0E0,-6.007027E-1,-0E0,1.1076932E0,-0E0,-0E0,-2.3115158E-1,5.5383563E-1,-5.6742185E-1,-5.963959E-1,-2.4124916E-1,-1.8822418E-1,6.212569E-1,1.6835323E-1,-2.9962987E-1,6.579412E-1,2.704869E-1,-2.3607606E-1,4.1019616E-1,-7.582492E-1,-0E0,-1.1608226E0,2.6921523E-1,-3.3689153E-1,6.5318835E-1,-9.026559E-1,2.5419254E0,1.11565076E-1,6.100881E-1,-7.13034E-1,1.6218108E-1,5.70443E-1,1.2548018E0,-3.0003142E-1,1.499753E0,-1.4819236E0,1.8979289E-1,-9.2375505E-1,-0E0,5.5084157E-1,1.0194575E0,-7.130725E-1,2.2302479E-1,-1.2063572E-1,-1.9587684E0,6.310908E-1,1.2816398E-1,-7.177415E-2,-1.553673E0,6.434453E-1,-1.7573133E0,5.8832604E-1,8.9522684E-1],"categories":[],"categories_nodes":[],"categories_segments":[],"categories_sizes":[],"default_left":[0,1,0,0,0,1,1,0,0,0,0,0,1,0,0,0,0,1,1,0,0,0,0,0,0,0,0,0,0,0,0,0,0,0,0,0,0,0,0,0,0,0,1,0,0,0,1,0,0,0,0,0,0,0,0,0,0,0,0,0,0,0,0,0,0,0,0,0,0,0,0,0,0,0,0,1,0,1,0,1,0,0,0,1,0,0,0,0,0,0,0],"id":2,"left_children":[1,3,5,7,9,11,13,15,17,19,21,23,25,-1,27,-1,-1,29,31,33,35,37,39,41,43,45,-1,-1,-1,47,-1,49,-1,-1,51,-1,53,-1,-1,-1,-1,-1,55,-1,-1,-1,57,59,-1,61,63,65,67,69,71,-1,-1,-1,-1,-1,-1,-1,-1,73,-1,-1,-1,75,-1,77,-1,79,-1,-1,-1,81,-1,83,-1,85,-1,-1,-1,87,-1,-1,-1,89,-1,-1,-1],"loss_changes":[1.2365602E3,3.5418638E3,1.5376831E1,4.4404456E2,7.125751E2,2.3986072E2,2.2070728E2,3.3613663E1,5.569022E2,4.7229395E2,6.8554245E1,4.9069946E1,7.324957E1,0E0,6.641441E1,0E0,0E0,1.5010889E2,3.539818E1,3.5087051E0,3.5568848E1,2.3738616E0,2.279953E0,4.0135864E1,1.0979377E0,3.708858E1,0E0,0E0,0E0,1.1112134E2,0E0,2.1482022E2,0E0,0E0,2.7163292E1,0E0,1.8611084E1,0E0,0E0,0E0,0E0,0E0,3.4779158E0,0E0,0E0,0E0,7.4302826E0,2.3388318E3,0E0,3.1506073E2,8.106139E2,5.8498703E1,2.6952148E1,1.8729712E2,1.3850151E2,0E0,0E0,0E0,0E0,0E0,0E0,0E0,0E0,7.23887E1,0E0,0E0,0E0,5.7043953E0,0E0,1.160144E1,0E0,3.3410984E1,0E0,0E0,0E0,9.6629715E0,0E0,1.5705347E2,0E0,1.7996338E1,0E0,0E0,0E0,9.229541E1,0E0,0E0,0E0,4.8169556E1,0E0,0E0,0E0],"parents":[2147483647,0,0,1,1,2,2,3,3,4,4,5,5,6,6,7,7,8,8,9,9,10,10,11,11,12,12,14,14,17,17,18,18,19,19,20,20,21,21,22,22,23,23,24,24,25,25,29,29,31,31,34,34,36,36,42,42,46,46,47,47,49,49,50,50,51,51,52,52,53,53,54,54,63,63,67,67,69,69,71,71,75,75,77,77,79,79,83,83,87,87],"right_children":[2,4,6,8,10,12,14,16,18,20,22,24,26,-1,28,-1,-1,30,32,34,36,38,40,42,44,46,-1,-1,-1,48,-1,50,-1,-1,52,-1,54,-1,-1,-1,-1,-1,56,-1,-1,-1,58,60,-1,62,64,66,68,70,72,-1,-1,-1,-1,-1,-1,-1,-1,74,-1,-1,-1,76,-1,78,-1,80,-1,-1,-1,82,-1,84,-1,86,-1,-1,-1,88,-1,-1,-1,90,-1,-1,-1],"split_conditions":[1.1E1,8E0,1E0,1E0,1.1E1,6E0,-1E-5,1E0,1E1,1E1,1E1,1E0,9E0,3.087424E0,9E0,1.1626685E0,2.2337857E-1,6E0,9E0,1E0,1E0,1E0,1E0,1E0,1E0,1E0,5.8878493E-1,1.0825E0,-0E0,1E0,1.2255764E0,1E0,1.175621E0,6.070016E-1,1E0,1.5334616E0,1E0,4.2583013E-1,-0E0,-6.007027E-1,-0E0,1.1076932E0,9E0,-0E0,-2.3115158E-1,5.5383563E-1,8E0,1E0,-2.4124916E-1,1E0,1E0,1E0,1E0,1E0,1E0,-2.3607606E-1,4.1019616E-1,-7.582492E-1,-0E0,-1.1608226E0,2.6921523E-1,-3.3689153E-1,6.5318835E-1,1E0,2.5419254E0,1.11565076E-1,6.100881E-1,1E0,1.6218108E-1,1E0,1.2548018E0,1E0,1.499753E0,-1.4819236E0,1.8979289E-1,3E0,-0E0,8E0,1.0194575E0,-1E-5,2.2302479E-1,-1.2063572E-1,-1.9587684E0,-1E-5,1.2816398E-1,-7.177415E-2,-1.553673E0,9E0,-1.7573133E0,5.8832604E-1,8.9522684E-1],"split_indices":[1,9,24,34,9,2,2,16,1,9,2,16,9,0,2,0,0,12,12,34,34,34,29,29,34,34,0,0,0,29,0,16,0,0,16,0,16,0,0,0,0,0,9,0,0,0,9,24,0,24,24,24,24,24,24,0,0,0,0,0,0,0,0,29,0,0,0,29,0,29,0,29,0,0,0,2,0,2,0,2,0,0,0,4,0,0,0,1,0,0,0],"split_type":[0,0,0,0,0,0,0,0,0,0,0,0,0,0,0,0,0,0,0,0,0,0,0,0,0,0,0,0,0,0,0,0,0,0,0,0,0,0,0,0,0,0,0,0,0,0,0,0,0,0,0,0,0,0,0,0,0,0,0,0,0,0,0,0,0,0,0,0,0,0,0,0,0,0,0,0,0,0,0,0,0,0,0,0,0,0,0,0,0,0,0],"sum_hessian":[2.6342963E4,2.4049748E4,2.2932146E3,1.388424E4,1.0165508E4,1.8589012E3,4.3431323E2,3.557024E2,1.3528538E4,9.061013E3,1.1044949E3,1.4655759E3,3.9332532E2,7.523162E1,3.5908163E2,2.3306497E2,1.2263742E2,8.521656E3,5.006882E3,2.7091108E3,6.3519023E3,3.213246E2,7.831703E2,1.4236145E3,4.1961426E1,2.2936005E2,1.6396527E2,2.4347305E2,1.1560857E2,8.466134E3,5.5522358E1,4.9803696E3,2.6512213E1,5.338888E1,2.655722E3,1.2643649E2,6.225466E3,1.9915215E1,3.0140936E2,7.710737E2,1.2096595E1,1.3737131E3,4.9901417E1,1.26003475E1,2.9361076E1,3.0434336E1,1.989257E2,7.580786E3,8.853472E2,4.6327207E3,3.476491E2,2.5416611E3,1.1406084E2,5.997592E3,2.2787389E2,3.0469206E1,1.943221E1,1.7781413E2,2.1111576E1,5.2175327E3,2.363254E3,4.123121E3,5.095994E2,1.6902498E2,1.7862415E2,2.110644E3,4.3101712E2,7.1591095E1,4.2469738E1,4.9247534E3,1.0728385E3,1.370751E2,9.079878E1,1.3629202E2,3.2732956E1,4.9327347E1,2.2263752E1,4.6416177E3,2.831357E2,8.648954E1,5.0585567E1,3.0168495E1,1.915885E1,3.9094312E3,7.3218646E2,4.9895443E1,3.6594097E1,3.891855E3,1.7576113E1,1.6373254E3,2.2545295E3],"tree_param":{"num_deleted":"0","num_feature":"41","num_nodes":"91","size_leaf_vector":"0"}},{"base_weights":[9.9103175E-2,-1.1694003E-1,3.9340377E-1,-4.7239834E-1,1.1262316E0,1.8766601E-1,4.344585E-1,-5.434861E-2,-5.643527E-1,1.1540273E0,1.6476343E0,2.942486E-1,-6.449185E-1,5.054616E-1,2.5661796E-1,-1.3788965E-1,1.50251575E-2,-9.82786E-2,-8.430432E-1,3.599018E-1,1.1182283E0,6.4580664E-2,1.3422201E0,-4.3205183E-2,-1.7186874E-1,-3.133269E-1,5.079253E-2,1.1679906E-3,-2.8721893E-1,-5.696433E-1,-1.3611664E0,2.2732556E-1,4.8725972E-1,1.4590325E0,9.6811694E-1,1.0134035E-1,-9.071833E-1,-2.660872E-1,1.619593E-2,-1.5756201E-2,-1.5458065E0,1.4561324E-1,-1.4484785E0,-3.6156973E-1,2.4023469E-1,-7.4606603E-1,-3.3834845E-1,6.5248094E-2,3.29311E-1,6.264591E-1,4.1918442E-1,2.7950987E-2,-0E0,4.295132E-1,2.4029309E-2,5.7060647E-1,1.0512654E-1,-1.0968038E0,-7.9500854E-1,-5.592491E-1,-2.3455541E-1,2.3019165E-1,-3.4936854E-1,1.9113708E-2,-1.02306336E-1,-0E0,3.8426075E-2,-0E0,1.24087155E-1,-1.5907224E-1,1.2408266E-1,-0E0,-4.3296507E-1,2.9282615E-1,-2.3441906E-1],"categories":[],"categories_nodes":[],"categories_segments":[],"categories_sizes":[],"default_left":[0,0,0,0,0,1,0,0,0,0,0,0,0,0,0,0,0,0,0,0,0,0,0,0,1,0,1,0,0,0,0,0,0,0,0,0,0,0,0,0,0,0,0,0,0,0,0,0,0,0,0,1,1,0,0,0,0,0,0,0,0,0,0,0,0,0,0,0,0,0,1,0,0,0,0],"id":3,"left_children":[1,3,5,7,9,11,13,15,17,-1,-1,-1,-1,19,21,23,25,27,29,31,33,35,-1,37,39,-1,41,43,-1,45,-1,47,49,-1,-1,-1,-1,-1,51,-1,-1,53,-1,-1,55,57,59,-1,-1,-1,-1,61,63,-1,65,-1,-1,-1,-1,-1,-1,-1,-1,67,-1,-1,69,-1,-1,71,73,-1,-1,-1,-1],"loss_changes":[1.5308031E3,6.1060967E3,7.917859E1,4.069519E2,9.8379395E1,7.060605E1,9.825549E1,1.2741987E1,1.1328853E3,0E0,0E0,0E0,0E0,5.1837085E2,3.951847E2,7.0708275E-1,7.5564303E0,4.9343307E1,4.2421045E2,7.410785E1,1.309436E1,2.6039143E1,0E0,5.9239407E0,9.616806E1,0E0,9.835066E1,1.3711383E2,0E0,1.0509778E2,0E0,1.6444382E1,2.4492798E0,0E0,0E0,0E0,0E0,0E0,3.91236E-2,0E0,0E0,1.8189356E1,0E0,0E0,3.279191E1,4.6657715E0,1.5960846E1,0E0,0E0,0E0,0E0,5.234013E0,1.4391515E-1,0E0,4.956546E-1,0E0,0E0,0E0,0E0,0E0,0E0,0E0,0E0,6.22979E-1,0E0,0E0,9.155152E0,0E0,0E0,3.362011E0,1.72736E1,0E0,0E0,0E0,0E0],"parents":[2147483647,0,0,1,1,2,2,3,3,4,4,5,5,6,6,7,7,8,8,13,13,14,14,15,15,16,16,17,17,18,18,19,19,20,20,21,21,23,23,24,24,26,26,27,27,29,29,31,31,32,32,38,38,41,41,44,44,45,45,46,46,51,51,52,52,54,54,63,63,66,66,69,69,70,70],"right_children":[2,4,6,8,10,12,14,16,18,-1,-1,-1,-1,20,22,24,26,28,30,32,34,36,-1,38,40,-1,42,44,-1,46,-1,48,50,-1,-1,-1,-1,-1,52,-1,-1,54,-1,-1,56,58,60,-1,-1,-1,-1,62,64,-1,66,-1,-1,-1,-1,-1,-1,-1,-1,68,-1,-1,70,-1,-1,72,74,-1,-1,-1,-1],"split_conditions":[1E1,1E0,1E0,1E0,7E0,9E0,1E1,4E0,1E0,1.1540273E0,1.6476343E0,2.942486E-1,-6.449185E-1,1.1E1,1.1E1,9E0,6E0,1E1,7E0,6E0,1E0,1.1E1,1.3422201E0,6E0,8E0,-3.133269E-1,9E0,7E0,-2.8721893E-1,5E0,-1.3611664E0,3E0,9E0,1.4590325E0,9.6811694E-1,1.0134035E-1,-9.071833E-1,-2.660872E-1,8E0,-1.5756201E-2,-1.5458065E0,1E1,-1.4484785E0,-3.6156973E-1,8E0,3E0,6E0,6.5248094E-2,3.29311E-1,6.264591E-1,4.1918442E-1,6E0,7E0,4.295132E-1,4E0,5.7060647E-1,1.0512654E-1,-1.0968038E0,-7.9500854E-1,-5.592491E-1,-2.3455541E-1,2.3019165E-1,-3.4936854E-1,4E0,-1.02306336E-1,-0E0,5E0,-0E0,1.24087155E-1,6E0,1E1,-0E0,-4.3296507E-1,2.9282615E-1,-2.3441906E-1],"split_indices":[0,14,25,30,7,3,7,0,25,0,0,0,0,0,0,7,7,7,7,7,14,7,0,7,4,0,4,7,0,7,0,7,7,0,0,0,0,0,7,0,0,7,0,0,7,7,7,0,0,0,0,4,4,0,4,0,0,0,0,0,0,0,0,3,0,0,3,0,0,0,3,0,0,0,0],"split_type":[0,0,0,0,0,0,0,0,0,0,0,0,0,0,0,0,0,0,0,0,0,0,0,0,0,0,0,0,0,0,0,0,0,0,0,0,0,0,0,0,0,0,0,0,0,0,0,0,0,0,0,0,0,0,0,0,0,0,0,0,0,0,0,0,0,0,0,0,0,0,0,0,0,0,0],"sum_hessian":[2.4027773E4,1.3834348E4,1.0193427E4,1.0765226E4,3.0691223E3,1.740795E3,8.452631E3,1.962796E3,8.80243E3,1.89675E3,1.1723722E3,1.6255819E3,1.1521316E2,5.996098E3,2.4565332E3,9.6318E2,9.99616E2,3.30881E3,5.4936196E3,4.8598574E3,1.1362405E3,2.0210681E3,4.354652E2,3.4081366E2,6.2236633E2,7.8735214E1,9.208808E2,1.8992394E3,1.4095706E3,2.8712373E3,2.622382E3,2.4239678E3,2.4358896E3,8.2745856E2,3.0878195E2,1.9859761E3,3.5092052E1,1.3138605E2,2.0942761E2,5.538848E2,6.848152E1,8.647433E2,5.6137535E1,8.163565E2,1.0828829E3,1.6015177E3,1.2697196E3,5.7763763E2,1.8463302E3,1.8579087E3,5.779811E2,1.2037329E2,8.905432E1,2.8054196E2,5.842013E2,3.9523434E2,6.8764856E2,4.7193726E2,1.1295804E3,6.241666E2,6.455529E2,1.02460754E2,1.7912537E1,7.3066956E1,1.5987365E1,2.008737E1,5.6411395E2,1.2746481E1,6.0320477E1,1.3136932E2,4.3274463E2,8.037776E1,5.0991558E1,3.394317E2,9.331291E1],"tree_param":{"num_deleted":"0","num_feature":"41","num_nodes":"75","size_leaf_vector":"0"}},{"base_weights":[5.948086E-2,6.33557E-2,-5.5323005E-1,7.209034E-2,-9.092855E-2,9.612628E-3,9.205325E-2,-2.053403E-2,-1.3028428E-1,-3.7880683E-1,1.7663013E0,-6.881671E-1,-1.7684801E-1],"categories":[],"categories_nodes":[],"categories_segments":[],"categories_sizes":[],"default_left":[1,0,0,0,0,0,0,0,0,0,0,0,0],"id":4,"left_children":[1,3,-1,5,7,-1,-1,-1,9,11,-1,-1,-1],"loss_changes":[4.0519737E1,2.954879E1,0E0,5.60833E0,1.5968142E0,0E0,0E0,0E0,2.3893163E2,1.69506E1,0E0,0E0,0E0],"parents":[2147483647,0,0,1,1,3,3,4,4,8,8,9,9],"right_children":[2,4,-1,6,8,-1,-1,-1,10,12,-1,-1,-1],"split_conditions":[9E0,1.1E1,-5.5323005E-1,1E0,1E0,9.612628E-3,9.205325E-2,-2.053403E-2,1E0,1E0,1.7663013E0,-6.881671E-1,-1.7684801E-1],"split_indices":[4,7,0,30,30,0,0,0,20,24,0,0,0],"split_type":[0,0,0,0,0,0,0,0,0,0,0,0,0],"sum_hessian":[2.2224512E4,2.2081941E4,1.4256912E2,2.0967006E4,1.1149354E3,1.6456127E3,1.9321395E4,4.8623886E2,6.2869653E2,5.505112E2,7.8185326E1,2.7132574E2,2.791855E2],"tree_param":{"num_deleted":"0","num_feature":"41","num_nodes":"13","size_leaf_vector":"0"}},{"base_weights":[-1.1814907E-2,-1.4019162E-2,7.602027E-1,-1.3364616E-2,-2.448363E0],"categories":[],"categories_nodes":[],"categories_segments":[],"categories_sizes":[],"default_left":[0,1,0,0,0],"id":5,"left_children":[1,3,-1,-1,-1],"loss_changes":[2.3909294E1,1.0167904E2,0E0,0E0,0E0],"parents":[2147483647,0,0,1,1],"right_children":[2,4,-1,-1,-1],"split_conditions":[1E0,7E0,7.602027E-1,-1.3364616E-2,-2.448363E0],"split_indices":[36,5,0,0,0],"split_type":[0,0,0,0,0],"sum_hessian":[2.159632E4,2.1540191E4,5.6128822E1,2.1515592E4,2.4600174E1],"tree_param":{"num_deleted":"0","num_feature":"41","num_nodes":"5","size_leaf_vector":"0"}},{"base_weights":[8.968036E-4,1.4150591E-3,-0E0,-1.6604649E-1,1.1623392E-1,-1.0119758E-1,5.8717716E-2,-2.4262443E-1,1.4771037E0,5.475928E-2,1.5292954E0,-1.9378749E-1,1.3660307E0,2.7179847E-2,1.2887905E0,-1.3628412E0,-2.3076835E-1,1.6033261E0,-0E0,6.4790815E-2,-7.53908E-1,1.6067661E0,5.1080203E-1,3.9470892E-2,-1.06395826E-1,-2.8668636E-1,-6.6331826E-2,2.18441E0,3.4342086E-1,8.865814E-2,-8.3080314E-2,1.9897346E0,-0E0,-2.883098E-1,-0E0,-3.3621824E-1,-3.9611287E-2,6.133686E-1,-0E0,-1.5207797E-1,1.6943945E-2,-5.816492E-1,-1.7474528E-1,5.175098E-2,-7.300749E-2,-9.730485E-2,-4.6411648E-1,-0E0,2.7394667E-1,-2.8688058E-1,-1.4459419E-1,6.623262E-2,-0E0,-3.6944352E-2,-2.7627024E-1,-1.1760582E-1,-2.0823915E-1,-0E0,3.799659E-1,-1.38472E-1,1.4264221E-2,-1.7241885E-1,5.605833E-2,-0E0,2.4798533E-2,-2.8957608E-1,-0E0,1.1647378E-1,-0E0,-0E0,-1.53214E-2,-0E0,7.021971E-2],"categories":[],"categories_nodes":[],"categories_segments":[],"categories_sizes":[],"default_left":[0,0,0,1,1,1,1,0,0,1,0,0,0,1,0,0,0,0,0,0,0,0,0,0,0,0,0,0,0,0,0,0,0,0,0,0,0,0,0,0,0,0,0,0,0,0,0,0,0,0,0,0,0,0,0,0,0,0,0,0,1,0,0,0,0,0,0,0,0,0,0,0,0],"id":6,"left_children":[1,3,5,7,9,11,13,15,17,19,21,-1,-1,23,-1,-1,25,27,-1,29,-1,31,-1,-1,-1,33,35,-1,37,-1,39,-1,-1,41,-1,-1,43,-1,-1,45,47,-1,49,51,53,-1,-1,-1,-1,-1,55,57,-1,59,-1,-1,-1,61,-1,-1,63,65,67,69,71,-1,-1,-1,-1,-1,-1,-1,-1],"loss_changes":[1.7870268E-2,3.3840408E2,2.4254799E1,8.835851E2,8.942715E2,1.0399464E2,6.8810104E1,5.7278076E1,6.919086E1,6.290503E1,1.4088257E1,0E0,0E0,1.0407249E0,0E0,0E0,5.8078857E1,5.765576E1,0E0,1.3627239E1,0E0,2.660559E1,0E0,0E0,0E0,4.6395874E-1,6.544427E0,0E0,1.5987296E0,0E0,5.0897627E0,0E0,0E0,1.0355017E2,0E0,0E0,5.157666E0,0E0,0E0,1.0099869E0,2.5415354E0,0E0,1.9482651E0,5.021102E-1,4.258025E0,0E0,0E0,0E0,0E0,0E0,8.852005E-2,8.896787E0,0E0,5.53581E0,0E0,0E0,0E0,3.4250376E0,0E0,0E0,1.5115286E-1,1.0079267E0,4.8672783E-1,1.6491223E-2,6.8499523E-1,0E0,0E0,0E0,0E0,0E0,0E0,0E0,0E0],"parents":[2147483647,0,0,1,1,2,2,3,3,4,4,5,5,6,6,7,7,8,8,9,9,10,10,13,13,16,16,17,17,19,19,21,21,25,25,26,26,28,28,30,30,33,33,36,36,39,39,40,40,42,42,43,43,44,44,50,50,51,51,53,53,57,57,60,60,61,61,62,62,63,63,64,64],"right_children":[2,4,6,8,10,12,14,16,18,20,22,-1,-1,24,-1,-1,26,28,-1,30,-1,32,-1,-1,-1,34,36,-1,38,-1,40,-1,-1,42,-1,-1,44,-1,-1,46,48,-1,50,52,54,-1,-1,-1,-1,-1,56,58,-1,60,-1,-1,-1,62,-1,-1,64,66,68,70,72,-1,-1,-1,-1,-1,-1,-1,-1],"split_conditions":[1E0,8E0,5E0,7E0,7E0,7E0,8E0,6E0,1.1E1,3E0,1.1E1,-1.9378749E-1,1.3660307E0,4E0,1.2887905E0,-1.3628412E0,1E0,1E0,-0E0,1E0,-7.53908E-1,1E0,5.1080203E-1,3.9470892E-2,-1.06395826E-1,1E0,3E0,2.18441E0,1E1,8.865814E-2,1.1E1,1.9897346E0,-0E0,5E0,-0E0,-3.3621824E-1,5E0,6.133686E-1,-0E0,1E1,1.1E1,-5.816492E-1,6E0,7E0,6E0,-9.730485E-2,-4.6411648E-1,-0E0,2.7394667E-1,-2.8688058E-1,7E0,1E0,-0E0,1E1,-2.7627024E-1,-1.1760582E-1,-2.0823915E-1,4E0,3.799659E-1,-1.38472E-1,-1E-5,5E0,5E0,3E0,3E0,-2.8957608E-1,-0E0,1.1647378E-1,-0E0,-0E0,-1.53214E-2,-0E0,7.021971E-2],"split_indices":[24,0,0,11,11,11,11,11,11,11,11,0,0,11,0,0,21,21,0,21,0,21,0,0,0,20,3,0,3,0,3,0,0,0,0,0,3,0,0,3,0,0,0,0,0,0,0,0,0,0,0,27,0,3,0,0,0,3,0,0,3,0,0,0,0,0,0,0,0,0,0,0,0],"split_type":[0,0,0,0,0,0,0,0,0,0,0,0,0,0,0,0,0,0,0,0,0,0,0,0,0,0,0,0,0,0,0,0,0,0,0,0,0,0,0,0,0,0,0,0,0,0,0,0,0,0,0,0,0,0,0,0,0,0,0,0,0,0,0,0,0,0,0,0,0,0,0,0,0],"sum_hessian":[2.1670934E4,1.762853E4,4.0424058E3,7.1310864E3,1.0497442E4,1.518744E3,2.5236616E3,6.820036E3,3.1105014E2,1.0067366E4,4.3007578E2,1.4564518E3,6.229233E1,2.4585085E3,6.515307E1,7.670257E1,6.743334E3,2.90914E2,2.0136156E1,9.938114E3,1.2925258E2,3.923925E2,3.7683285E1,2.432312E3,2.6196522E1,4.9816387E3,1.761695E3,2.3962918E2,5.1284824E1,9.418398E3,5.197157E2,3.7559964E2,1.6792852E1,4.9312754E3,5.03634E1,1.4883325E2,1.6128617E3,2.9056385E1,2.222844E1,3.7333984E2,1.4637587E2,1.7615117E3,3.1697637E3,3.4260522E2,1.2702565E3,3.2354742E2,4.9792427E1,9.716566E1,4.9210217E1,8.8628186E2,2.283482E3,3.2361276E2,1.8992458E1,1.0915292E3,1.7872725E2,1.0364203E3,1.2470616E3,2.2143663E2,1.0217613E2,5.153022E2,5.7622705E2,1.0261806E2,1.1881858E2,1.3980664E2,4.3642038E2,6.9213196E1,3.3404858E1,9.066487E1,2.8153706E1,3.935458E1,1.0045206E2,1.598906E2,2.765298E2],"tree_param":{"num_deleted":"0","num_feature":"41","num_nodes":"73","size_leaf_vector":"0"}},{"base_weights":[1.9818034E-2,-2.4479559E-1,3.005088E-1,-2.8788584E-1,-0E0,1.9096777E-1,3.7491015E-1,-3.286194E-2,-5.246582E-1,-1.5728709E-1,6.6407824E-1,-2.4105883E-1,2.9868913E-1,5.5760884E-1,-1.03826545E-1,-5.323787E-2,-1.3452755E-2,-6.3242984E-1,-3.8415045E-1,-4.4974843E-1,-1.13589175E-1,3.1515114E-2,-5.665195E-1,1.6199112E-1,5.894164E-1,1.350725E-1,-1.128121E0,-2.8047013E-1,3.9379645E-2,-2.8422087E-1,6.8064876E-2,-8.6875427E-1,-2.6584288E-1,-6.27354E-1,4.0170223E-1,-3.3879496E-2,-1.2443998E0,-1.9027914E-1,2.7901223E-1,-7.068832E-1,-0E0,1.0594027E0,5.589611E-1,-2.930224E-1,3.9924258E-1,-0E0,-5.2480286E-1,1.9957562E-1,-8.4652424E-2,2.3108762E-2,3.7967268E-1,-1.4980285E0,-8.654245E-1,-3.162258E-1,9.783126E-2,-1.4101881E0,-5.4520375E-1,-0E0,-2.5901577E-1,3.5808477E-1,-0E0,6.5943307E-1,-1.5636896E-1,2.8876472E-1,-2.0595355E-1,1.3018382E-1,-6.474364E-1,2.7627614E-1,-1.384219E-1,3.3555716E-1,5.1260577E-3,-3.7948218E-1,-6.353644E-2,-1.7351033E-1,-6.9100916E-1,-5.264632E-1,-0E0,9.1042095E-1,7.014878E-3,7.5499976E-1,2.7375233E-1,2.4278726E-1,-2.662961E-1,4.865087E-1,-0E0,-1.9370254E-2,-1.2438427E0,-4.3550375E-1,3.7949152E-2,8.064915E-2,-7.044134E-1,6.918348E-1,-2.3418477E0,1.1068501E0,-1.7601535E0,2.9847085E-1,-8.273301E-1,1.340763E-1,-1.6257496E0,6.389223E-2,-0E0,5.118312E-1,1.0342343E0,3.8977423E-1,-0E0,-4.457511E-1,-0E0,-4.039793E-1,-0E0,-2.1092734E0,-0E0,3.0007985E-1,-5.455139E-1,-1.1854329E-1,5.8790296E-1,9.843103E-1,7.2773375E-2,-3.0893996E0,-3.3859223E-2,-2.292391E0,-0E0,-1.07287124E-1,7.852693E-1,2.599498E-1,4.77252E-2,-0E0,4.8387378E-1,1.4675912E-1,7.669465E-1,-2.8214782E-1,1.9407738E-2,-0E0,9.345282E-1,8.3348036E-1,-0E0,-4.1764545E-1,-0E0,-1.05183735E-1,3.023446E-1,-6.5291375E-2,2.3344296E-1],"categories":[],"categories_nodes":[],"categories_segments":[],"categories_sizes":[],"default_left":[0,0,0,0,1,0,1,0,0,0,0,0,0,0,0,0,1,1,1,0,1,1,0,0,0,0,0,0,1,0,0,0,0,0,0,0,0,0,0,0,0,0,0,0,0,0,0,0,0,0,0,0,0,0,0,0,0,0,0,0,0,0,0,1,0,0,0,0,0,0,0,0,0,0,0,0,0,0,0,0,0,0,0,0,0,0,0,0,0,0,0,0,0,0,0,0,0,0,0,0,0,0,0,0,0,0,0,0,0,0,0,0,0,0,0,0,0,0,0,0,0,0,0,0,0,0,0,0,0,0,0,0,0,0,0,0,0,0,0,0,0],"id":7,"left_children":[1,3,5,7,9,11,13,15,17,19,-1,21,-1,23,25,27,29,31,33,-1,35,37,39,-1,41,43,-1,45,47,-1,49,51,53,55,-1,-1,-1,57,59,-1,-1,-1,-1,-1,61,63,65,-1,67,69,-1,-1,-1,71,-1,-1,73,-1,75,77,-1,79,81,83,-1,-1,85,-1,87,-1,89,91,93,95,97,-1,-1,-1,99,101,103,-1,105,-1,-1,107,109,-1,111,113,-1,115,117,-1,119,121,-1,123,-1,-1,-1,-1,-1,125,-1,-1,-1,-1,-1,-1,-1,127,-1,129,131,-1,-1,-1,-1,-1,-1,-1,-1,-1,-1,-1,133,-1,-1,135,137,139,-1,-1,-1,-1,-1,-1,-1,-1,-1],"loss_changes":[1.5959431E3,1.1936212E2,7.881677E1,5.6257184E2,1.4523795E2,1.08904434E2,5.4370593E2,1.0608144E0,6.2310913E1,6.456068E0,0E0,4.9462475E1,0E0,5.20177E1,3.4676923E2,4.3592175E1,4.9654694E1,2.2186218E2,3.8067087E2,0E0,7.3478065E1,1.4622146E1,4.2049408E-1,0E0,1.3456445E2,1.3233484E2,0E0,3.5121006E1,2.220414E1,0E0,1.7295887E1,6.8642334E1,2.1513924E1,5.4358887E1,0E0,0E0,0E0,7.166035E-1,4.495161E0,0E0,0E0,0E0,0E0,0E0,1.19042656E2,1.3597388E1,2.9165031E1,0E0,9.803815E0,4.3745985E0,0E0,0E0,0E0,1.0589203E1,0E0,0E0,6.788077E1,0E0,3.3598228E0,8.54267E0,0E0,8.755722E0,1.0055332E1,5.118703E0,0E0,0E0,8.505578E1,0E0,2.6536938E1,0E0,6.456812E1,1.5765752E3,3.9457254E2,1.081983E2,5.6816504E2,0E0,0E0,0E0,1.6472404E-1,5.5236816E-1,2.9705448E0,0E0,9.42138E0,0E0,0E0,2.3826096E0,9.2594284E1,0E0,3.652849E1,1.4719377E2,0E0,2.9556808E1,1.19155396E2,0E0,3.9316711E0,3.5627846E1,0E0,6.10198E-1,0E0,0E0,0E0,0E0,0E0,5.5780125E-1,0E0,0E0,0E0,0E0,0E0,0E0,0E0,4.0736275E0,0E0,2.533762E1,4.4152664E1,0E0,0E0,0E0,0E0,0E0,0E0,0E0,0E0,0E0,0E0,0E0,3.7770605E0,0E0,0E0,6.6184387E0,1.441227E1,1.6223323E0,0E0,0E0,0E0,0E0,0E0,0E0,0E0,0E0,0E0],"parents":[2147483647,0,0,1,1,2,2,3,3,4,4,5,5,6,6,7,7,8,8,9,9,11,11,13,13,14,14,15,15,16,16,17,17,18,18,20,20,21,21,22,22,24,24,25,25,27,27,28,28,30,30,31,31,32,32,33,33,37,37,38,38,44,44,45,45,46,46,48,48,49,49,53,53,56,56,58,58,59,59,61,61,62,62,63,63,66,66,68,68,70,70,71,71,72,72,73,73,74,74,78,78,79,79,80,80,82,82,85,85,86,86,88,88,89,89,91,91,92,92,94,94,95,95,97,97,103,103,111,111,113,113,114,114,126,126,129,129,130,130,131,131],"right_children":[2,4,6,8,10,12,14,16,18,20,-1,22,-1,24,26,28,30,32,34,-1,36,38,40,-1,42,44,-1,46,48,-1,50,52,54,56,-1,-1,-1,58,60,-1,-1,-1,-1,-1,62,64,66,-1,68,70,-1,-1,-1,72,-1,-1,74,-1,76,78,-1,80,82,84,-1,-1,86,-1,88,-1,90,92,94,96,98,-1,-1,-1,100,102,104,-1,106,-1,-1,108,110,-1,112,114,-1,116,118,-1,120,122,-1,124,-1,-1,-1,-1,-1,126,-1,-1,-1,-1,-1,-1,-1,128,-1,130,132,-1,-1,-1,-1,-1,-1,-1,-1,-1,-1,-1,134,-1,-1,136,138,140,-1,-1,-1,-1,-1,-1,-1,-1,-1],"split_conditions":[9E0,8E0,7E0,1E0,7E0,1E0,-1E-5,4E0,6E0,1E0,6.6407824E-1,1E0,2.9868913E-1,1E0,1E0,6E0,5E0,9E0,9E0,-4.4974843E-1,-1E-5,7E0,1.1E1,1.6199112E-1,9E0,6E0,-1.128121E0,4E0,1E1,-2.8422087E-1,1.1E1,8E0,1.1E1,7E0,4.0170223E-1,-3.3879496E-2,-1.2443998E0,4E0,1.1E1,-7.068832E-1,-0E0,1.0594027E0,5.589611E-1,-2.930224E-1,1E1,1E0,1E0,1.9957562E-1,1E0,1E0,3.7967268E-1,-1.4980285E0,-8.654245E-1,5E0,9.783126E-2,-1.4101881E0,1E0,-0E0,1.1E1,1.1E1,-0E0,1.1E1,1E0,-1E-5,-2.0595355E-1,1.3018382E-1,8E0,2.7627614E-1,6E0,3.3555716E-1,1.1E1,1E1,7E0,1E1,1E1,-5.264632E-1,-0E0,9.1042095E-1,5E0,3E0,5E0,2.4278726E-1,7E0,4.865087E-1,-0E0,3E0,1.1E1,-4.3550375E-1,9E0,7E0,-7.044134E-1,9E0,1.1E1,1.1068501E0,1.1E1,8E0,-8.273301E-1,8E0,-1.6257496E0,6.389223E-2,-0E0,5.118312E-1,1.0342343E0,3E0,-0E0,-4.457511E-1,-0E0,-4.039793E-1,-0E0,-2.1092734E0,-0E0,1.1E1,-5.455139E-1,1E1,6E0,9.843103E-1,7.2773375E-2,-3.0893996E0,-3.3859223E-2,-2.292391E0,-0E0,-1.07287124E-1,7.852693E-1,2.599498E-1,4.77252E-2,-0E0,8E0,1.4675912E-1,7.669465E-1,7E0,6E0,6E0,9.345282E-1,8.3348036E-1,-0E0,-4.1764545E-1,-0E0,-1.05183735E-1,3.023446E-1,-6.5291375E-2,2.3344296E-1],"split_indices":[1,1,7,25,2,19,2,1,1,25,0,25,0,25,25,2,2,2,2,0,2,2,2,0,7,2,0,2,2,0,2,2,2,2,0,0,0,2,2,0,0,0,0,0,2,34,34,0,34,34,0,0,0,1,0,0,19,0,1,1,0,1,34,5,0,0,0,0,0,0,0,0,0,0,0,0,0,0,0,0,0,0,0,0,0,0,0,0,0,0,0,0,0,0,0,0,0,0,0,0,0,0,0,0,0,0,0,0,0,0,0,2,0,2,2,0,0,0,0,0,0,0,0,0,0,0,2,0,0,1,1,1,0,0,0,0,0,0,0,0,0],"split_type":[0,0,0,0,0,0,0,0,0,0,0,0,0,0,0,0,0,0,0,0,0,0,0,0,0,0,0,0,0,0,0,0,0,0,0,0,0,0,0,0,0,0,0,0,0,0,0,0,0,0,0,0,0,0,0,0,0,0,0,0,0,0,0,0,0,0,0,0,0,0,0,0,0,0,0,0,0,0,0,0,0,0,0,0,0,0,0,0,0,0,0,0,0,0,0,0,0,0,0,0,0,0,0,0,0,0,0,0,0,0,0,0,0,0,0,0,0,0,0,0,0,0,0,0,0,0,0,0,0,0,0,0,0,0,0,0,0,0,0,0,0],"sum_hessian":[2.1478662E4,1.1035567E4,1.0443095E4,9.419437E3,1.6161306E3,4.284539E3,6.158556E3,4.5575586E3,4.861878E3,1.2450015E3,3.7112918E2,4.9046323E2,3.7940757E3,4.474276E3,1.6842804E3,1.9438798E3,2.6136787E3,2.7066147E3,2.1552632E3,1.648737E2,1.0801278E3,2.4833904E2,2.4212419E2,3.3799927E2,4.1362764E3,1.3008502E3,3.8343027E2,5.9762946E2,1.3462502E3,7.33283E2,1.8803956E3,1.6272285E3,1.0793864E3,1.6226373E3,5.32626E2,1.00015753E3,7.997025E1,1.07278595E2,1.4106044E2,2.2363745E2,1.848674E1,1.1797429E3,2.9565337E3,5.1614246E2,7.847077E2,2.9944022E2,2.9818927E2,7.0806195E2,6.381883E2,1.6310121E3,2.4938365E2,4.253844E2,1.2018441E3,9.706961E2,1.0869024E2,1.9268443E2,1.4299529E3,3.8715836E1,6.856276E1,1.2068575E2,2.0374693E1,5.4806134E2,2.3664638E2,8.77344E1,2.1170581E2,3.3649044E1,2.6454022E2,6.2771614E1,5.754167E2,6.608143E1,1.5649305E3,7.4114233E2,2.2955377E2,4.2439618E2,1.0055567E3,4.1056538E1,2.7506222E1,4.1415333E1,7.927042E1,4.1609692E2,1.319644E2,3.1730194E1,2.0491618E2,7.512625E1,1.260815E1,1.3794675E2,1.26593475E2,2.8003625E2,2.9538043E2,1.4050651E3,1.5986559E2,4.7576184E2,2.653805E2,1.4088538E2,8.8668396E1,2.1089236E2,2.135038E2,4.4258026E2,5.6297644E2,5.905285E1,2.021757E1,1.300638E2,2.860331E2,8.463237E1,4.7332035E1,1.7241138E2,3.250481E1,2.1305408E1,1.1664134E2,9.2719475E1,3.3873997E1,2.0770322E2,8.767721E1,9.9316296E2,4.1190204E2,3.7927112E2,9.64907E1,2.3595544E2,2.9425041E1,7.5835106E1,1.2833293E1,8.631158E1,1.2458079E2,1.721852E2,2.7039508E2,2.7344578E1,5.728779E1,1.5813254E2,4.9570683E1,4.911981E2,5.019649E2,1.064443E2,3.0545773E2,3.5377617E1,2.1910172E1,3.749085E2,1.1628959E2,3.1119678E2,1.9076814E2,6.931871E1,3.7125584E1],"tree_param":{"num_deleted":"0","num_feature":"41","num_nodes":"141","size_leaf_vector":"0"}},{"base_weights":[6.1061975E-2,3.9985433E-2,2.7620685E-1,1.3345724E-1,-7.320583E-2,3.154629E-1,-0E0,7.330135E-2,1.6812168E-1,-6.413043E-2,-1.4728057E-1,3.340015E-1,-7.3199475E-1,-4.0998858E-1,1.7500135E-1,-4.9938012E-2,-4.5057088E-1,-1.7153989E-1,-0E0,-1.2567836E-1,3.7713116E-1,-0E0,-8.4226084E-1,1.5940085E-1,1.0223875E0,4.3391106E-1,-5.5384204E-2,-7.970911E-1,-0E0,-2.4102117E-1,1.0179235E-1,7.4143924E-2,-1.7401981E-1,-0E0,-2.6285383E-1,3.9470336E-1,-0E0,2.8565958E-1,8.774086E-2,-9.0257704E-2,-3.5503116E-2,-3.1884527E-1,-0E0,9.488531E-2,4.4033825E-1,3.0702603E-1,-0E0,4.9758175E-1,-2.6321274E-3,-8.47022E-2,8.51701E-1,4.409257E-1,-1.7647316E-1,-1.3149965E-1,1.3149852E0,-3.182682E-1,6.546021E-1,4.852804E-1,1.0578258E0,-1.2724352E-1,1.9449015E-1,-1.3494506E-1,4.7390437E-1,-1.03845425E-1,-8.249302E-1,-1.6143069E-1,-4.4191465E-2],"categories":[],"categories_nodes":[],"categories_segments":[],"categories_sizes":[],"default_left":[0,0,0,0,0,0,0,0,0,1,1,0,0,0,1,0,0,1,0,0,0,0,0,0,0,0,0,0,0,0,0,0,0,0,0,0,0,0,1,0,1,0,0,0,1,0,0,0,0,0,0,0,0,0,0,0,0,0,0,1,0,1,0,0,0,0,0],"id":8,"left_children":[1,3,5,7,9,11,-1,-1,13,15,17,19,-1,21,23,25,27,29,31,33,35,-1,-1,37,-1,-1,39,-1,-1,-1,-1,-1,41,-1,-1,43,45,47,49,51,53,-1,-1,55,57,-1,-1,-1,-1,59,-1,-1,-1,-1,-1,-1,-1,-1,-1,61,-1,63,-1,65,-1,-1,-1],"loss_changes":[8.861807E1,1.9696167E2,1.6464935E1,2.3003342E1,3.2537346E0,2.3035507E1,0E0,0E0,2.4420395E1,3.5903473E1,1.6741905E0,3.255887E1,0E0,6.337593E0,6.015724E1,1.3039455E1,2.2905323E1,6.137203E0,2.305805E0,2.0090623E0,5.046341E0,0E0,0E0,5.5567093E1,0E0,0E0,3.6297321E0,0E0,0E0,0E0,0E0,0E0,1.3322566E0,0E0,0E0,1.190892E1,1.2734125E0,9.219577E1,4.664221E2,6.1450462E1,3.9649432E2,0E0,0E0,3.6564823E1,2.5451355E0,0E0,0E0,0E0,0E0,3.464E1,0E0,0E0,0E0,0E0,0E0,0E0,0E0,0E0,0E0,8.704647E0,0E0,4.0496384E1,0E0,3.765215E0,0E0,0E0,0E0],"parents":[2147483647,0,0,1,1,2,2,3,3,4,4,5,5,8,8,9,9,10,10,11,11,13,13,14,14,15,15,16,16,17,17,18,18,19,19,20,20,23,23,26,26,32,32,35,35,36,36,37,37,38,38,39,39,40,40,43,43,44,44,49,49,59,59,61,61,63,63],"right_children":[2,4,6,8,10,12,-1,-1,14,16,18,20,-1,22,24,26,28,30,32,34,36,-1,-1,38,-1,-1,40,-1,-1,-1,-1,-1,42,-1,-1,44,46,48,50,52,54,-1,-1,56,58,-1,-1,-1,-1,60,-1,-1,-1,-1,-1,-1,-1,-1,-1,62,-1,64,-1,66,-1,-1,-1],"split_conditions":[1E0,8E0,1.1E1,4E0,1.1E1,1E0,-0E0,7.330135E-2,1.1E1,5E0,6E0,3E0,-7.3199475E-1,5E0,8E0,3E0,1.1E1,1E1,1E1,8E0,1.1E1,-0E0,-8.4226084E-1,1E0,1.0223875E0,4.3391106E-1,1E1,-7.970911E-1,-0E0,-2.4102117E-1,1.0179235E-1,7.4143924E-2,1.1E1,-0E0,-2.6285383E-1,6E0,6E0,7E0,6E0,1.1E1,6E0,-3.1884527E-1,-0E0,9E0,8E0,3.0702603E-1,-0E0,4.9758175E-1,-2.6321274E-3,7E0,8.51701E-1,4.409257E-1,-1.7647316E-1,-1.3149965E-1,1.3149852E0,-3.182682E-1,6.546021E-1,4.852804E-1,1.0578258E0,6E0,1.9449015E-1,4E0,4.7390437E-1,6E0,-8.249302E-1,-1.6143069E-1,-4.4191465E-2],"split_indices":[29,7,7,7,7,17,0,0,3,3,3,3,0,3,11,3,3,11,3,7,3,0,0,19,0,0,7,0,0,0,0,0,3,0,0,7,7,7,10,10,10,0,0,3,10,0,0,0,0,7,0,0,0,0,0,0,0,0,0,11,0,10,0,7,0,0,0],"split_type":[0,0,0,0,0,0,0,0,0,0,0,0,0,0,0,0,0,0,0,0,0,0,0,0,0,0,0,0,0,0,0,0,0,0,0,0,0,0,0,0,0,0,0,0,0,0,0,0,0,0,0,0,0,0,0,0,0,0,0,0,0,0,0,0,0,0,0],"sum_hessian":[2.0318475E4,1.8552691E4,1.7657815E3,1.0215284E4,8.337408E3,1.519101E3,2.4668051E2,3.4187686E3,6.7965156E3,7.561208E3,7.761999E2,1.5011061E3,1.7994831E1,6.08996E1,6.735616E3,7.321141E3,2.4006699E2,6.290693E2,1.4713065E2,1.066402E2,1.394466E3,2.750203E1,3.339757E1,6.6005503E3,1.350657E2,6.87272E1,7.252414E3,1.6126593E2,7.8801056E1,6.0205347E2,2.7015818E1,8.134671E1,6.5783936E1,3.0200071E1,7.644013E1,1.3054557E3,8.901031E1,2.3336294E3,4.266921E3,2.4301848E3,4.822229E3,4.6754547E1,1.9029385E1,2.0465466E2,1.1008009E3,1.9291883E1,6.971842E1,1.6326852E3,7.0094434E2,3.3296003E3,9.3732056E2,2.481813E2,2.1820034E3,4.5346133E3,2.8761603E2,1.0016855E2,1.0448612E2,1.044588E3,5.62129E1,2.879317E3,4.502835E2,2.858527E3,2.0789745E1,2.7258137E3,1.327135E2,1.7466256E3,9.7918805E2],"tree_param":{"num_deleted":"0","num_feature":"41","num_nodes":"67","size_leaf_vector":"0"}},{"base_weights":[1.0314332E-2,-7.190895E-2,1.1175278E-1,-1.2673412E-1,3.475836E-2,1.6401951E-1,-8.2135725E-1,-1.762476E-2,-1.4423443E-1,3.691706E-2,-0E0,3.73557E-1,1.7629416E-1,-3.7283495E-2,-0E0,-1.5985684E-1,9.265411E-1,-1.7870337E-1,4.900395E-1,-0E0,-2.3300178E-1,-0E0,3.4878146E-2,-1.8057258E-1,-0E0,-1.5003562E-1,-8.1460315E-1,1.4427698E0,3.9035594E-1,-1.5123188E-1,3.5994026E-1,-2.2519484E-1,1.3272322E-2,-1.9614805E-1,7.507055E-2],"categories":[],"categories_nodes":[],"categories_segments":[],"categories_sizes":[],"default_left":[0,1,1,0,0,0,0,0,0,0,0,0,0,0,0,0,0,0,0,0,0,0,0,0,0,0,0,0,0,0,0,0,0,0,0],"id":9,"left_children":[1,3,5,7,9,11,-1,13,15,17,-1,-1,-1,19,21,23,-1,25,27,29,-1,-1,-1,31,-1,33,-1,-1,-1,-1,-1,-1,-1,-1,-1],"loss_changes":[1.6299562E2,6.3618244E1,3.6087445E2,1.1831032E1,2.4762344E-1,1.5236099E1,0E0,7.3399866E-1,8.0225494E1,3.2997757E2,0E0,0E0,0E0,2.6434188E0,2.2634785E-1,2.141629E1,0E0,2.313015E1,1.11204285E2,2.3842127E1,0E0,0E0,0E0,9.874863E0,0E0,7.511677E0,0E0,0E0,0E0,0E0,0E0,0E0,0E0,0E0,0E0],"parents":[2147483647,0,0,1,1,2,2,3,3,4,4,5,5,7,7,8,8,9,9,13,13,14,14,15,15,17,17,18,18,19,19,23,23,25,25],"right_children":[2,4,6,8,10,12,-1,14,16,18,-1,-1,-1,20,22,24,-1,26,28,30,-1,-1,-1,32,-1,34,-1,-1,-1,-1,-1,-1,-1,-1,-1],"split_conditions":[9E0,8E0,1E1,4E0,1E0,6E0,-8.2135725E-1,1E0,1E0,1E0,-0E0,3.73557E-1,1.7629416E-1,7E0,3E0,1E0,9.265411E-1,8E0,3E0,1E0,-2.3300178E-1,-0E0,3.4878146E-2,1E0,-0E0,1E0,-8.1460315E-1,1.4427698E0,3.9035594E-1,-1.5123188E-1,3.5994026E-1,-2.2519484E-1,1.3272322E-2,-1.9614805E-1,7.507055E-2],"split_indices":[0,2,2,2,16,2,0,14,23,14,0,0,0,0,0,14,0,0,0,27,0,0,0,27,0,27,0,0,0,0,0,0,0,0,0],"split_type":[0,0,0,0,0,0,0,0,0,0,0,0,0,0,0,0,0,0,0,0,0,0,0,0,0,0,0,0,0,0,0,0,0,0,0],"sum_hessian":[1.9489248E4,1.0703591E4,8.785658E3,7.138677E3,3.5649138E3,8.259023E3,5.2663434E2,1.0745635E3,6.0641133E3,3.3418804E3,2.2303343E2,7.643023E2,7.494721E3,7.6814014E2,3.064233E2,5.974669E3,8.944436E1,2.2477537E3,1.0941267E3,6.703945E2,9.774567E1,4.0318024E1,2.661053E2,5.33925E3,6.3541895E2,2.1473977E3,1.0035593E2,1.907962E2,9.033305E2,4.9450793E2,1.7588655E2,5.188197E3,1.5105305E2,2.0641238E3,8.327399E1],"tree_param":{"num_deleted":"0","num_feature":"41","num_nodes":"35","size_leaf_vector":"0"}},{"base_weights":[1.1806239E-2,-8.2309616E-1,1.3743253E-2,2.4561821E-1,1.0818548E-2,-0E0,3.6897478E-1,8.7028113E-4,6.9973207E-1,4.8432648E-1,-0E0,3.911474E-1,-0E0,5.997223E-2,1.0296302E0,1.1764621E-1,-8.187419E-3,1.384056E-1,-0E0,-3.3484488E-3,-1.09213814E-1,-0E0,1.574007E-1,-3.0799088E-1,1.0445615E-2,8.817493E-3,-3.8197268E-2,8.5097365E-2,-1.2995765E-1,-0E0,2.1447974E-1,-7.975782E-3,3.4143426E-2,-9.9693336E-2,2.9862555E-2,-1.9163586E-3,-1.7801067E-1,4.492067E-2,-5.1757616E-1,-5.698316E-3,1.84759E-1,-6.129414E-1,-0E0,-3.9318245E-2,6.8372185E-3,5.185501E-1,-0E0,-0E0,-1.0304298E0,1.4359789E-1,-2.0611123E-3],"categories":[],"categories_nodes":[],"categories_segments":[],"categories_sizes":[],"default_left":[0,0,0,0,1,0,0,0,0,0,0,0,0,0,0,0,0,0,0,0,0,0,0,0,0,0,0,0,0,0,0,1,1,0,0,1,0,0,0,0,0,0,0,0,0,0,0,0,0,0,0],"id":10,"left_children":[1,-1,3,5,7,-1,9,11,-1,13,-1,-1,15,-1,-1,17,19,21,23,25,-1,27,29,-1,-1,31,33,-1,-1,-1,-1,35,37,-1,-1,39,41,-1,-1,43,45,47,49,-1,-1,-1,-1,-1,-1,-1,-1],"loss_changes":[1.8474781E1,0E0,1.0114016E1,8.220319E0,1.0161793E2,0E0,9.754423E0,2.1978543E0,0E0,1.04201355E1,0E0,0E0,1.8953712E1,0E0,0E0,4.3628826E0,5.9140425E0,2.3176632E0,2.4890404E0,7.318954E0,0E0,1.1329951E0,4.7555313E0,0E0,0E0,5.3896184E0,1.3498507E1,0E0,0E0,0E0,0E0,5.1540985E0,3.6526937E0,0E0,0E0,2.787504E0,1.8838339E1,0E0,0E0,2.378324E0,6.783059E0,6.1740093E0,1.0321331E0,0E0,0E0,0E0,0E0,0E0,0E0,0E0,0E0],"parents":[2147483647,0,0,2,2,3,3,4,4,6,6,7,7,9,9,12,12,15,15,16,16,17,17,18,18,19,19,21,21,22,22,25,25,26,26,31,31,32,32,35,35,36,36,39,39,40,40,41,41,42,42],"right_children":[2,-1,4,6,8,-1,10,12,-1,14,-1,-1,16,-1,-1,18,20,22,24,26,-1,28,30,-1,-1,32,34,-1,-1,-1,-1,36,38,-1,-1,40,42,-1,-1,44,46,48,50,-1,-1,-1,-1,-1,-1,-1,-1],"split_conditions":[3E0,-8.2309616E-1,7E0,4E0,9E0,-0E0,1E0,1E0,6.9973207E-1,8E0,-0E0,3.911474E-1,1E1,5.997223E-2,1.0296302E0,1.1E1,1.1E1,7E0,5E0,1E0,-1.09213814E-1,5E0,1.1E1,-3.0799088E-1,1.0445615E-2,7E0,1E1,8.5097365E-2,-1.2995765E-1,-0E0,2.1447974E-1,4E0,3E0,-9.9693336E-2,2.9862555E-2,-1E-5,6E0,4.492067E-2,-5.1757616E-1,4E0,4E0,3E0,4E0,-3.9318245E-2,6.8372185E-3,5.185501E-1,-0E0,-0E0,-1.0304298E0,1.4359789E-1,-2.0611123E-3],"split_indices":[4,0,4,4,11,0,32,37,0,3,0,0,3,0,0,7,7,7,3,15,0,7,4,0,0,7,7,0,0,0,0,11,11,0,0,11,11,0,0,7,7,7,7,0,0,0,0,0,0,0,0],"split_type":[0,0,0,0,0,0,0,0,0,0,0,0,0,0,0,0,0,0,0,0,0,0,0,0,0,0,0,0,0,0,0,0,0,0,0,0,0,0,0,0,0,0,0,0,0,0,0,0,0,0,0],"sum_hessian":[1.9155682E4,3.6987377E1,1.9118695E4,1.9075523E2,1.892794E4,4.586298E1,1.4489226E2,1.8624688E4,3.0325214E2,1.25664696E2,1.9227562E1,2.0648893E1,1.860404E4,7.210091E1,5.3563786E1,1.2855171E3,1.7318521E4,1.1565546E3,1.2896259E2,1.6492322E4,8.261994E2,1.687602E2,9.877944E2,3.739547E1,9.156712E1,1.1988122E4,4.504199E3,1.2753354E2,4.122665E1,7.9016174E1,9.087782E2,6.944359E3,5.0437637E3,2.7290754E3,1.7751238E3,6.76858E3,1.7577875E2,5.030791E3,1.29723215E1,6.6925894E3,7.599096E1,6.494068E1,1.10838066E2,2.2676987E3,4.4248906E3,4.985452E1,2.6136435E1,2.3772312E1,4.1168373E1,7.155514E1,3.928293E1],"tree_param":{"num_deleted":"0","num_feature":"41","num_nodes":"51","size_leaf_vector":"0"}},{"base_weights":[7.014459E-4,3.1302113E-2,-3.2784846E-2,3.3594877E-2,-1.0198462E0,-3.8503457E-2,2.6487547E-1,1.4869237E-2,2.745817E-1,6.652084E-2,-1.5607917E-1,-0E0,3.5257086E-1,1.8679228E-2,-1.0440249E-1,7.137949E-2,-9.478469E-2,-0E0,-1.911201E-1,6.362911E-1,-0E0,4.9452607E-2,-7.516518E-2,-2.4089839E-1,1.9237219E-1,-7.3127374E-3,3.6053863E-1,-3.4971303E-1,-0E0,-7.938101E-2,5.652892E-2,-3.657631E-1,-0E0,-0E0,3.730357E-1,-0E0,-1.9788362E-1,-0E0,7.1938284E-2,-2.8698586E-2,-0E0,7.177584E-2,-3.97378E-2,7.746586E-2,2.807104E-2,2.473161E-2,8.716599E-2,6.0540404E-2,-0E0,-0E0,4.5443084E-2,1.0449966E-1,-0E0,-0E0,-8.275667E-2],"categories":[],"categories_nodes":[],"categories_segments":[],"categories_sizes":[],"default_left":[0,1,1,0,0,0,0,1,0,1,0,0,0,0,0,0,0,0,0,0,0,0,0,0,0,0,0,0,0,0,0,0,0,0,0,0,0,0,0,0,0,0,0,0,0,0,0,0,0,0,0,0,0,0,0],"id":11,"left_children":[1,3,5,7,-1,9,11,13,-1,15,17,-1,19,21,23,25,27,-1,-1,-1,-1,29,-1,31,33,-1,-1,-1,-1,35,37,-1,-1,-1,-1,39,-1,41,43,-1,-1,-1,-1,45,47,49,51,-1,53,-1,-1,-1,-1,-1,-1],"loss_changes":[1.9449995E1,1.1363303E1,1.2628233E1,3.4299606E1,0E0,1.09245926E2,4.625478E0,3.254086E0,0E0,3.3297195E0,3.4963226E0,0E0,1.2092538E1,2.2587444E1,8.490949E0,8.375906E1,2.5391374E0,0E0,0E0,0E0,0E0,5.834135E0,0E0,3.3814669E0,3.8606322E-1,0E0,0E0,0E0,0E0,9.4366634E-1,6.3800335E0,0E0,0E0,0E0,0E0,8.576991E-3,0E0,2.1369686E0,8.536148E-2,0E0,0E0,0E0,0E0,9.992008E-1,1.007796E0,2.6459652E-1,3.532982E-2,0E0,5.754048E-1,0E0,0E0,0E0,0E0,0E0,0E0],"parents":[2147483647,0,0,1,1,2,2,3,3,5,5,6,6,7,7,9,9,10,10,12,12,13,13,14,14,15,15,16,16,21,21,23,23,24,24,29,29,30,30,35,35,37,37,38,38,43,43,44,44,45,45,46,46,48,48],"right_children":[2,4,6,8,-1,10,12,14,-1,16,18,-1,20,22,24,26,28,-1,-1,-1,-1,30,-1,32,34,-1,-1,-1,-1,36,38,-1,-1,-1,-1,40,-1,42,44,-1,-1,-1,-1,46,48,50,52,-1,54,-1,-1,-1,-1,-1,-1],"split_conditions":[1E0,1.1E1,8E0,1.1E1,-1.0198462E0,1E1,6E0,4E0,2.745817E-1,3E0,5E0,-0E0,1.1E1,8E0,1E0,9E0,8E0,-0E0,-1.911201E-1,6.362911E-1,-0E0,1.1E1,-7.516518E-2,1E0,8E0,-7.3127374E-3,3.6053863E-1,-3.4971303E-1,-0E0,4E0,3E0,-3.657631E-1,-0E0,-0E0,3.730357E-1,1E0,-1.9788362E-1,1E0,1E0,-2.8698586E-2,-0E0,7.177584E-2,-3.97378E-2,4E0,6E0,1E0,1E0,6.0540404E-2,1E0,-0E0,4.5443084E-2,1.0449966E-1,-0E0,-0E0,-8.275667E-2],"split_indices":[19,11,11,0,0,0,0,11,0,11,11,0,11,0,29,0,0,0,0,0,0,4,0,27,11,0,0,0,0,0,0,0,0,0,0,15,0,15,29,0,0,0,0,0,0,15,17,0,15,0,0,0,0,0,0],"split_type":[0,0,0,0,0,0,0,0,0,0,0,0,0,0,0,0,0,0,0,0,0,0,0,0,0,0,0,0,0,0,0,0,0,0,0,0,0,0,0,0,0,0,0,0,0,0,0,0,0,0,0,0,0,0,0],"sum_hessian":[1.8997139E4,1.0099774E4,8.897365E3,1.0086224E4,1.3551041E1,8.766332E3,1.3103343E2,9.258434E3,8.2779004E2,4.5803647E3,4.185967E3,1.9880304E1,1.1115312E2,9.06221E3,1.9622345E2,4.5133726E3,6.699203E1,5.5998245E1,4.1299688E3,9.15169E1,1.9636219E1,6.6779766E3,2.3842332E3,1.6007512E2,3.6148342E1,3.3401023E3,1.1732705E3,3.670787E1,3.0284159E1,2.6586185E2,6.4121147E3,1.3545836E2,2.4616753E1,1.8448742E1,1.7699602E1,1.7022264E2,9.563918E1,1.2199602E3,5.192155E3,1.486512E1,1.5535753E2,3.162654E2,9.0369476E2,4.385976E3,8.061789E2,8.595514E2,3.5264246E3,6.4117914E2,1.6499974E2,3.121582E2,5.473932E2,3.5140198E3,1.2404698E1,4.4858624E1,1.2014111E2],"tree_param":{"num_deleted":"0","num_feature":"41","num_nodes":"55","size_leaf_vector":"0"}},{"base_weights":[4.1697533E-3,5.156956E-4,1.1893537E0,3.3023876E-1,-5.86597E-3,-2.004854E-1,4.3215146E-3,1.4509389E-4,8.279078E-3,-2.6805347E-2,2.3113474E-1],"categories":[],"categories_nodes":[],"categories_segments":[],"categories_sizes":[],"default_left":[1,0,0,0,0,0,0,0,0,0,0],"id":12,"left_children":[1,3,-1,-1,5,-1,7,9,-1,-1,-1],"loss_changes":[5.815842E1,3.654772E1,0E0,0E0,3.246839E1,0E0,1.10780716E-1,3.8193737E1,0E0,0E0,0E0],"parents":[2147483647,0,0,1,1,4,4,6,6,7,7],"right_children":[2,4,-1,-1,6,-1,8,10,-1,-1,-1],"split_conditions":[7E0,1E0,1.1893537E0,3.3023876E-1,4E0,-2.004854E-1,1E0,1E0,8.279078E-3,-2.6805347E-2,2.3113474E-1],"split_indices":[12,34,0,0,2,0,19,18,0,0,0],"split_type":[0,0,0,0,0,0,0,0,0,0,0],"sum_hessian":[1.912947E4,1.9070363E4,5.9107327E1,4.7097543E2,1.8599389E4,1.1665482E3,1.743284E4,8.331064E3,9.101775E3,7.408154E3,9.229107E2],"tree_param":{"num_deleted":"0","num_feature":"41","num_nodes":"11","size_leaf_vector":"0"}},{"base_weights":[1.4422506E-3,9.661917E-3,-3.208772E-1,1.7504202E-2,1.9129792E-4,-0E0,1.8355638E-2,-2.9017547E-1,2.1942894E-3,1.3495107E-1,-0E0,1.0855899E-2,-1.2029266E-2,2.3784121E-2,-1.8223833E-2,7.940413E-2,-7.652592E-1],"categories":[],"categories_nodes":[],"categories_segments":[],"categories_sizes":[],"default_left":[0,0,0,0,0,0,0,0,0,0,0,0,0,1,0,0,0],"id":13,"left_children":[1,3,-1,5,7,-1,9,-1,-1,-1,11,13,-1,15,-1,-1,-1],"loss_changes":[3.9655384E1,1.1887769E0,0E0,2.863562E-1,9.509397E-1,0E0,1.6909634E1,0E0,0E0,0E0,8.6724806E-1,1.3367417E0,0E0,7.128403E1,0E0,0E0,0E0],"parents":[2147483647,0,0,1,1,3,3,4,4,6,6,10,10,11,11,13,13],"right_children":[2,4,-1,6,8,-1,10,-1,-1,-1,12,14,-1,16,-1,-1,-1],"split_conditions":[1E0,1E0,-3.208772E-1,9E0,8E0,-0E0,1E0,-2.9017547E-1,2.1942894E-3,1.3495107E-1,1E0,1E0,-1.2029266E-2,1.1E1,-1.8223833E-2,7.940413E-2,-7.652592E-1],"split_indices":[27,19,0,12,12,0,30,0,0,0,15,18,0,2,0,0,0],"split_type":[0,0,0,0,0,0,0,0,0,0,0,0,0,0,0,0,0],"sum_hessian":[1.9182445E4,1.8655232E4,5.2721216E2,9.562598E3,9.092634E3,1.6659164E1,9.545938E3,1.5609924E1,9.077024E3,1.5806237E3,7.9653154E3,3.6807537E3,4.2845615E3,2.746266E3,9.344875E2,2.5963518E3,1.499144E2],"tree_param":{"num_deleted":"0","num_feature":"41","num_nodes":"17","size_leaf_vector":"0"}},{"base_weights":[-0E0,-1.6707712E-1,1.9826193E-1,-2.3349501E-1,4.0573936E-2,1.8599516E-1,4.5973673E-1,-2.52489E-1,-9.363576E-2,-3.1052452E-1,-0E0,-4.089645E-1,4.6696648E-2],"categories":[],"categories_nodes":[],"categories_segments":[],"categories_sizes":[],"default_left":[1,0,0,0,0,0,0,1,0,0,0,0,0],"id":14,"left_children":[1,3,5,7,-1,-1,-1,9,11,-1,-1,-1,-1],"loss_changes":[6.333138E2,1.4097446E2,6.3458008E1,1.701361E1,0E0,0E0,0E0,1.4333252E1,3.6616226E1,0E0,0E0,0E0,0E0],"parents":[2147483647,0,0,1,1,2,2,3,3,7,7,8,8],"right_children":[2,4,6,8,-1,-1,-1,10,12,-1,-1,-1,-1],"split_conditions":[7E0,1E0,1E0,1E0,4.0573936E-2,1.8599516E-1,4.5973673E-1,5E0,6E0,-3.1052452E-1,-0E0,-4.089645E-1,4.6696648E-2],"split_indices":[9,24,24,29,0,0,0,4,3,0,0,0,0],"split_type":[0,0,0,0,0,0,0,0,0,0,0,0,0],"sum_hessian":[1.912406E4,1.0393451E4,8.730609E3,7.853664E3,2.5397876E3,7.148896E3,1.5817135E3,6.844583E3,1.0090809E3,6.685126E3,1.5945703E2,3.8057608E2,6.285048E2],"tree_param":{"num_deleted":"0","num_feature":"41","num_nodes":"13","size_leaf_vector":"0"}},{"base_weights":[1.2081417E-2,3.7901003E-2,-4.991023E-1,2.9877588E-1,8.770067E-3,-8.393434E-1,-0E0,-2.221081E-2,1.09062694E-1,3.092275E-2,-5.3470865E-2,1.0996129E-1,-0E0,-0E0,2.0788552E-1,-7.9308756E-2,1.8978736E-1,1.2905073E-1,-1.0456256E-2,3.2746702E-1,-5.1714964E-2,9.873032E-1,1.07694365E-1,-9.718616E-1,-2.476003E-2,4.6800843E-1,-3.846892E-1,-1.3940778E-1,8.608852E-1,-9.294421E-2,9.113976E-1,-0E0,5.5119574E-1,4.353133E-2,-6.042672E-1,-0E0,2.2768106E-1,-1.6155418E0,-6.730335E-1,4.4894814E-1,-2.2141966E-1,9.061652E-1,3.1195807E-1,-1.161398E0,-1.9953492E-1,-4.369595E-2,-6.702982E-1,1.2818332E0,-0E0,8.883084E-2,-2.3722176E-1,-8.800322E-2,1.00303836E-1,-2.7010563E-1,6.50208E-2,-1.1046771E-1,-3.0762846E-2],"categories":[],"categories_nodes":[],"categories_segments":[],"categories_sizes":[],"default_left":[1,0,0,0,1,0,0,0,0,0,0,0,0,0,0,0,1,0,0,0,0,0,0,0,0,0,0,0,0,0,0,0,0,0,0,0,0,0,0,0,0,0,0,0,0,0,0,0,0,0,0,0,0,0,0,0,0],"id":15,"left_children":[1,3,5,-1,7,-1,-1,9,11,13,15,17,-1,19,21,23,25,27,29,31,33,-1,35,37,39,41,43,45,47,49,-1,-1,-1,51,-1,-1,-1,-1,-1,-1,53,-1,-1,-1,-1,55,-1,-1,-1,-1,-1,-1,-1,-1,-1,-1,-1],"loss_changes":[2.4122304E2,1.0693927E2,8.638022E1,0E0,4.9700825E1,0E0,0E0,2.0013584E1,5.6095505E-1,2.2645184E1,4.6684204E1,9.987495E0,0E0,6.292747E1,2.7900301E1,3.264363E2,1.1131464E2,6.632069E2,2.0366653E1,2.2610245E1,1.411533E2,0E0,2.9948983E0,3.8780396E1,5.13323E2,1.7373734E1,1.4463987E1,9.1159775E1,1.6434338E2,8.558984E0,0E0,0E0,0E0,1.231222E1,0E0,0E0,0E0,0E0,0E0,0E0,7.2897797E0,0E0,0E0,0E0,0E0,4.36769E-1,0E0,0E0,0E0,0E0,0E0,0E0,0E0,0E0,0E0,0E0,0E0],"parents":[2147483647,0,0,1,1,2,2,4,4,7,7,8,8,9,9,10,10,11,11,13,13,14,14,15,15,16,16,17,17,18,18,19,19,20,20,22,22,23,23,24,24,25,25,26,26,27,27,28,28,29,29,33,33,40,40,45,45],"right_children":[2,4,6,-1,8,-1,-1,10,12,14,16,18,-1,20,22,24,26,28,30,32,34,-1,36,38,40,42,44,46,48,50,-1,-1,-1,52,-1,-1,-1,-1,-1,-1,54,-1,-1,-1,-1,56,-1,-1,-1,-1,-1,-1,-1,-1,-1,-1,-1],"split_conditions":[1.1E1,4E0,9E0,2.9877588E-1,1E1,-8.393434E-1,-0E0,8E0,1E0,1E0,1E0,1E0,-0E0,3E0,3E0,4E0,-1E-5,1E1,1E1,1E0,1E0,9.873032E-1,6E0,3E0,9E0,9E0,4E0,7E0,1.1E1,4E0,9.113976E-1,-0E0,5.5119574E-1,1E0,-6.042672E-1,-0E0,2.2768106E-1,-1.6155418E0,-6.730335E-1,4.4894814E-1,1E0,9.061652E-1,3.1195807E-1,-1.161398E0,-1.9953492E-1,1E0,-6.702982E-1,1.2818332E0,-0E0,8.883084E-2,-2.3722176E-1,-8.800322E-2,1.00303836E-1,-2.7010563E-1,6.50208E-2,-1.1046771E-1,-3.0762846E-2],"split_indices":[9,9,7,0,9,0,0,9,32,14,14,14,0,7,7,7,9,7,7,19,24,0,7,7,7,7,7,7,7,7,0,0,0,19,0,0,0,0,0,0,20,0,0,0,0,19,0,0,0,0,0,0,0,0,0,0,0],"split_type":[0,0,0,0,0,0,0,0,0,0,0,0,0,0,0,0,0,0,0,0,0,0,0,0,0,0,0,0,0,0,0,0,0,0,0,0,0,0,0,0,0,0,0,0,0,0,0,0,0,0,0,0,0,0,0,0,0],"sum_hessian":[1.8664973E4,1.778828E4,8.766941E2,2.1035488E3,1.568473E4,6.1874506E2,2.5794907E2,1.1898403E4,3.7863264E3,4.2754985E3,7.6229053E3,3.771088E3,1.5238572E1,3.656932E3,6.185666E2,6.9323164E3,6.9058923E2,3.3347786E3,4.3630945E2,5.0826144E2,3.1486704E3,7.081413E1,5.4775244E2,3.874995E2,6.544817E3,4.7830615E2,2.1228307E2,2.4286921E3,9.060864E2,4.072456E2,2.9063843E1,1.4523872E2,3.6302274E2,2.581955E3,5.667153E2,2.8985153E2,2.5790094E2,1.8701198E2,2.0048755E2,2.138004E3,4.406813E3,1.7702036E2,3.012858E2,4.3646107E1,1.6863696E2,2.0004178E3,4.2827426E2,7.276119E2,1.7847453E2,1.16671844E2,2.9057376E2,5.908368E2,1.9911183E3,4.376852E3,2.9960503E1,3.7260864E2,1.6278092E3],"tree_param":{"num_deleted":"0","num_feature":"41","num_nodes":"57","size_leaf_vector":"0"}},{"base_weights":[3.6820035E-2,-1.4123247E-2,9.122228E-2,2.6072925E-2,-1.1211156E0,5.3177856E-2,1.2431018E0,-6.3917064E-3,1.02629595E-1,1.6328149E-1,-3.01791E-2,7.754481E-2,3.2894424E-1,-1.9632587E-1,1.6929619E-2,1.6668609E-1,7.713349E-2],"categories":[],"categories_nodes":[],"categories_segments":[],"categories_sizes":[],"default_left":[1,0,0,0,0,0,0,0,0,0,0,0,0,0,0,0,0],"id":16,"left_children":[1,3,5,-1,-1,7,-1,9,11,-1,13,15,-1,-1,-1,-1,-1],"loss_changes":[5.2120598E1,3.235144E2,3.1432913E2,0E0,0E0,2.6735903E1,0E0,1.1906414E1,1.710941E1,0E0,2.1670156E1,1.2032738E0,0E0,0E0,0E0,0E0,0E0],"parents":[2147483647,0,0,1,1,2,2,5,5,7,7,8,8,10,10,11,11],"right_children":[2,4,6,-1,-1,8,-1,10,12,-1,14,16,-1,-1,-1,-1,-1],"split_conditions":[6E0,1E0,1E0,2.6072925E-2,-1.1211156E0,1E0,1.2431018E0,7E0,1.1E1,1.6328149E-1,9E0,7E0,3.2894424E-1,-1.9632587E-1,1.6929619E-2,1.6668609E-1,7.713349E-2],"split_indices":[9,18,18,0,0,19,0,9,9,0,9,9,0,0,0,0,0],"split_type":[0,0,0,0,0,0,0,0,0,0,0,0,0,0,0,0,0],"sum_hessian":[1.8497006E4,9.446626E3,9.050379E3,9.081272E3,3.6535336E2,8.712564E3,3.378146E2,3.8500068E3,4.8625576E3,4.8263348E2,3.3673733E3,4.3013027E3,5.6125494E2,8.9958606E2,2.4677874E3,6.010621E2,3.7002405E3],"tree_param":{"num_deleted":"0","num_feature":"41","num_nodes":"17","size_leaf_vector":"0"}},{"base_weights":[-2.9661756E-3,-6.7350574E-2,5.213742E-1,2.123935E-1,-7.293996E-2,7.4535173E-1,-2.110956E0,-1.2067305E-1,1.0845016E-1,4.7743988E-1,9.80303E-1,-1.3848218E-1,4.6015686E-1,-1.304261E-1,-7.583781E-1,-0E0,4.9259946E-1,-1.4732595E-1,7.849847E-2,-1.0564989E0,-0E0,-0E0,6.7852473E-1,-3.0275494E-1,-1.0544472E-1,2.1039957E-1,-1.4378202E-1,9.3918455E-1,-0E0],"categories":[],"categories_nodes":[],"categories_segments":[],"categories_sizes":[],"default_left":[1,0,0,0,0,0,0,0,0,0,0,0,0,1,1,0,0,0,0,0,0,0,0,0,0,0,0,0,0],"id":17,"left_children":[1,3,5,-1,7,9,-1,11,-1,-1,-1,13,15,17,19,-1,21,23,25,-1,-1,-1,27,-1,-1,-1,-1,-1,-1],"loss_changes":[6.018258E2,2.0782257E1,9.8581744E2,0E0,1.2307922E2,3.2174866E1,0E0,1.2282347E2,0E0,0E0,0E0,4.9413986E1,5.051964E0,4.221689E1,1.5738358E1,0E0,3.059166E1,6.45072E1,1.6676907E1,0E0,0E0,0E0,1.4084511E1,0E0,0E0,0E0,0E0,0E0,0E0],"parents":[2147483647,0,0,1,1,2,2,4,4,5,5,7,7,11,11,12,12,13,13,14,14,16,16,17,17,18,18,22,22],"right_children":[2,4,6,-1,8,10,-1,12,-1,-1,-1,14,16,18,20,-1,22,24,26,-1,-1,-1,28,-1,-1,-1,-1,-1,-1],"split_conditions":[9E0,3E0,1.1E1,2.123935E-1,1E0,1E1,-2.110956E0,1E0,1.0845016E-1,4.7743988E-1,9.80303E-1,1E0,7E0,6E0,1.1E1,-0E0,5E0,1E0,8E0,-1.0564989E0,-0E0,-0E0,1.1E1,-3.0275494E-1,-1.0544472E-1,2.1039957E-1,-1.4378202E-1,9.3918455E-1,-0E0],"split_indices":[10,10,10,0,24,10,0,33,0,0,0,27,10,10,4,0,4,19,10,0,0,0,3,0,0,0,0,0,0],"split_type":[0,0,0,0,0,0,0,0,0,0,0,0,0,0,0,0,0,0,0,0,0,0,0,0,0,0,0,0,0],"sum_hessian":[1.7976432E4,1.6029397E4,1.9470355E3,3.1321014E2,1.5716187E4,1.777771E3,1.6926448E2,1.2219387E4,3.4967998E3,3.4074207E2,1.4370289E3,1.1874466E4,3.4492133E2,1.1739871E4,1.3459497E2,2.3121168E1,3.2180014E2,1.0910553E4,8.2931805E2,1.1935595E2,1.5239013E1,8.576132E1,2.3603883E2,3.8448499E3,7.065703E3,5.940402E2,2.352778E2,1.9904738E2,3.6991447E1],"tree_param":{"num_deleted":"0","num_feature":"41","num_nodes":"29","size_leaf_vector":"0"}},{"base_weights":[3.337265E-2,9.014505E-3,1.9638254E-1,-7.4937575E-2,1.1792249E-1,3.2643574E-1,1.5985931E-1,-7.633963E-2,-0E0,3.5732606E-1,7.207741E-2,4.9760107E-2,5.419385E-1,3.6164727E-2,2.5865397E-1,-7.689088E-2,-0E0,9.798042E-1,6.656768E-2,-1.8248115E-1,-6.3879155E-2,3.4421902E-2,4.7177213E-1,-7.010534E-2,1.573655E-2,-1.217097E-2,1.0767767E-1,-0E0,-7.037858E-2,-0E0,-3.9646065E-1,-1.0151979E-1,2.742323E-3,-0E0,-1.3709621E-3],"categories":[],"categories_nodes":[],"categories_segments":[],"categories_sizes":[],"default_left":[0,0,0,0,0,0,0,0,0,0,0,0,0,0,0,0,0,0,0,0,0,0,0,0,0,1,0,0,0,0,0,0,0,0,0],"id":18,"left_children":[1,3,5,7,9,11,13,15,-1,-1,17,-1,-1,-1,-1,19,-1,-1,21,-1,23,25,-1,27,-1,29,-1,-1,31,33,-1,-1,-1,-1,-1],"loss_changes":[6.7943634E1,1.4171008E2,5.2305984E0,1.7534409E0,5.2104813E1,9.812206E0,1.0535324E1,5.977173E-1,0E0,0E0,1.2622896E1,0E0,0E0,0E0,0E0,6.0903053E0,0E0,0E0,5.2510704E1,0E0,4.2248707E0,1.3769667E1,0E0,2.0514297E-1,0E0,8.351671E0,0E0,0E0,8.349106E0,1.3027296E-3,0E0,0E0,0E0,0E0,0E0],"parents":[2147483647,0,0,1,1,2,2,3,3,4,4,5,5,6,6,7,7,10,10,15,15,18,18,20,20,21,21,23,23,25,25,28,28,29,29],"right_children":[2,4,6,8,10,12,14,16,-1,-1,18,-1,-1,-1,-1,20,-1,-1,22,-1,24,26,-1,28,-1,30,-1,-1,32,34,-1,-1,-1,-1,-1],"split_conditions":[1E0,9E0,4E0,1E0,1E1,3E0,6E0,1E0,-0E0,3.5732606E-1,9E0,4.9760107E-2,5.419385E-1,3.6164727E-2,2.5865397E-1,4E0,-0E0,9.798042E-1,1.1E1,-1.8248115E-1,1.1E1,9E0,4.7177213E-1,6E0,1.573655E-2,5E0,1.0767767E-1,-0E0,1E0,1E0,-3.9646065E-1,-1.0151979E-1,2.742323E-3,-0E0,-1.3709621E-3],"split_indices":[14,7,7,32,7,7,7,22,0,0,5,0,0,0,0,1,0,0,1,0,1,1,0,4,0,4,0,0,24,24,0,0,0,0,0],"split_type":[0,0,0,0,0,0,0,0,0,0,0,0,0,0,0,0,0,0,0,0,0,0,0,0,0,0,0,0,0,0,0,0,0,0,0],"sum_hessian":[1.7686809E4,1.5446871E4,2.2399377E3,8.6651875E3,6.7816836E3,4.2431583E2,1.8156221E3,8.650697E3,1.4490425E1,1.3223594E3,5.459324E3,1.5767377E2,2.6664206E2,6.1036584E2,1.2052562E3,8.628203E3,2.249457E1,2.515613E1,5.434168E3,1.1402599E3,7.487943E3,4.9799126E3,4.542558E2,7.0615728E3,4.263702E2,2.6009104E3,2.379002E3,1.3310108E1,7.0482627E3,2.5214358E3,7.94746E1,6.002938E3,1.0453243E3,1.5300944E3,9.913413E2],"tree_param":{"num_deleted":"0","num_feature":"41","num_nodes":"35","size_leaf_vector":"0"}},{"base_weights":[3.916276E-3,-1.3626194E-2,2.0691682E-1,-6.037793E-1,1.9198734E-1,3.340791E-1,-3.810354E-2,-6.2158936E-1,-0E0,-0E0,1.9383138E-1,4.9990487E-1,-1.1855582E0,-1.724491E-1,1.7412484E-2,-7.34979E-1,-5.528727E-1,-2.4140358E-2,2.591616E-3,-1.5582734E-2,-0E0,-0E0,2.2866938E-1,-0E0,-3.4875968E-1,9.884706E-2,-1.13080345E-1,-1.167397E0,-5.117587E-1,-9.4691086E-1,-3.4278205E-1,-2.4360615E-1,-0E0,-0E0,2.788617E-1,-1.377773E-1,-0E0,6.892775E-2,-1.1066946E0,2.980864E-1,-1.0243332E0,1.5497681E-1,-0E0,-7.6605374E-1,-4.3479294E-1,-4.2685148E-1,-0E0,-0E0,-5.198493E-1,-2.3591332E-2,8.78424E-2,-3.158069E-2,3.4068272E-1,-0E0,1.155004E-1,-0E0,-2.2540224E-1,-2.5068406E-2,3.0278146E-1,-2.7531541E-3,-3.003316E-1,4.498239E-1,2.4918416E-1,4.6523765E-1,-1.3143444E-1,-1.7052417E-1,5.876928E-1,4.6553913E-1,2.3472317E-1,2.0794132E-1,5.500713E-1,-0E0,6.5095377E-1,-0E0,-2.6294962E-1,3.3083484E-1,5.9195435E-1,-0E0,5.9818643E-1,2.511995E-1,-1.2181752E-1,2.0400435E-2,9.5616E-1,-3.3979998E-3,3.728977E-1,7.8017044E-1,2.4200588E-1,3.0707288E-1,-3.9973786E-1,-1.5228924E-1,-0E0,1.2290268E0,-0E0,1.8021154E-1,4.3412644E-1],"categories":[],"categories_nodes":[],"categories_segments":[],"categories_sizes":[],"default_left":[1,0,0,1,0,0,0,0,0,1,0,0,0,0,0,0,0,0,0,1,0,0,0,0,0,0,0,0,0,0,0,0,0,0,0,0,0,0,0,0,0,0,0,0,0,0,0,0,0,0,0,0,0,0,0,0,0,0,0,0,0,0,0,0,0,0,0,0,0,1,0,0,0,1,0,0,0,0,0,1,1,0,0,0,0,0,0,0,0,0,0,0,0,0,0],"id":19,"left_children":[1,3,5,7,9,11,13,15,17,19,21,-1,-1,23,25,27,29,31,33,35,-1,37,39,-1,-1,41,-1,-1,43,-1,45,-1,-1,-1,-1,47,-1,49,-1,51,-1,-1,-1,-1,-1,-1,53,-1,-1,55,57,59,61,-1,-1,-1,-1,63,65,-1,-1,67,69,71,73,-1,-1,75,77,79,81,-1,-1,83,-1,85,-1,-1,-1,87,89,-1,-1,-1,-1,91,93,-1,-1,-1,-1,-1,-1,-1,-1],"loss_changes":[6.451848E1,1.9546132E3,4.8267555E1,4.3822754E1,5.211334E0,1.0265461E2,5.179899E0,1.717981E1,4.1570224E-2,1.4904229E-2,7.91264E1,0E0,0E0,4.9545994E0,2.5036619E0,6.229486E1,1.1683234E2,2.1420794E0,1.7480243E0,8.679539E-1,0E0,1.1313924E2,7.473958E2,0E0,0E0,9.6963215E-1,0E0,0E0,3.8051453E0,0E0,8.897537E0,0E0,0E0,0E0,0E0,2.922834E0,0E0,3.6729565E0,0E0,1.3561035E2,0E0,0E0,0E0,0E0,0E0,0E0,1.9727112E-1,0E0,0E0,2.1594696E0,3.9574406E1,3.9129028E0,7.576019E1,0E0,0E0,0E0,0E0,4.5925224E1,5.022472E1,0E0,0E0,4.9176636E0,4.872345E1,3.1829185E0,1.0903625E1,0E0,0E0,4.5063477E0,1.594124E1,5.968518E1,6.0409912E1,0E0,0E0,2.4998841E0,0E0,1.6058388E1,0E0,0E0,0E0,1.0985672E1,3.1926107E-1,0E0,0E0,0E0,0E0,1.4991287E1,8.5500336E-1,0E0,0E0,0E0,0E0,0E0,0E0,0E0,0E0],"parents":[2147483647,0,0,1,1,2,2,3,3,4,4,5,5,6,6,7,7,8,8,9,9,10,10,13,13,14,14,15,15,16,16,17,17,18,18,19,19,21,21,22,22,25,25,28,28,30,30,35,35,37,37,39,39,46,46,49,49,50,50,51,51,52,52,57,57,58,58,61,61,62,62,63,63,64,64,67,67,68,68,69,69,70,70,73,73,75,75,79,79,80,80,85,85,86,86],"right_children":[2,4,6,8,10,12,14,16,18,20,22,-1,-1,24,26,28,30,32,34,36,-1,38,40,-1,-1,42,-1,-1,44,-1,46,-1,-1,-1,-1,48,-1,50,-1,52,-1,-1,-1,-1,-1,-1,54,-1,-1,56,58,60,62,-1,-1,-1,-1,64,66,-1,-1,68,70,72,74,-1,-1,76,78,80,82,-1,-1,84,-1,86,-1,-1,-1,88,90,-1,-1,-1,-1,92,94,-1,-1,-1,-1,-1,-1,-1,-1],"split_conditions":[4E0,6E0,1E1,-1E-5,1E0,1E0,7E0,1.1E1,8E0,1E1,7E0,4.9990487E-1,-1.1855582E0,4E0,1.1E1,4E0,4E0,5E0,4E0,8E0,-0E0,1.1E1,1.1E1,-0E0,-3.4875968E-1,1.1E1,-1.13080345E-1,-1.167397E0,5E0,-9.4691086E-1,1E0,-2.4360615E-1,-0E0,-0E0,2.788617E-1,1E1,-0E0,7E0,-1.1066946E0,7E0,-1.0243332E0,1.5497681E-1,-0E0,-7.6605374E-1,-4.3479294E-1,-4.2685148E-1,5E0,-0E0,-5.198493E-1,1E0,1E0,1E0,1E1,-0E0,1.155004E-1,-0E0,-2.2540224E-1,8E0,9E0,-2.7531541E-3,-3.003316E-1,1E0,1E0,4E0,1E1,-1.7052417E-1,5.876928E-1,1.1E1,9E0,1E1,1E1,-0E0,6.5095377E-1,-1E-5,-2.6294962E-1,1E0,5.9195435E-1,-0E0,5.9818643E-1,-1E-5,3E0,2.0400435E-2,9.5616E-1,-3.3979998E-3,3.728977E-1,9E0,9E0,3.0707288E-1,-3.9973786E-1,-1.5228924E-1,-0E0,1.2290268E0,-0E0,1.8021154E-1,4.3412644E-1],"split_indices":[3,8,8,3,34,30,3,2,2,2,2,0,0,2,3,8,8,8,8,4,0,8,8,0,0,8,0,0,8,0,23,0,0,0,0,8,0,8,0,8,0,0,0,0,0,0,8,0,0,14,14,14,8,0,0,0,0,8,8,0,0,14,14,2,8,0,0,2,8,2,2,0,0,3,0,30,0,0,0,3,3,0,0,0,0,8,8,0,0,0,0,0,0,0,0],"split_type":[0,0,0,0,0,0,0,0,0,0,0,0,0,0,0,0,0,0,0,0,0,0,0,0,0,0,0,0,0,0,0,0,0,0,0,0,0,0,0,0,0,0,0,0,0,0,0,0,0,0,0,0,0,0,0,0,0,0,0,0,0,0,0,0,0,0,0,0,0,0,0,0,0,0,0,0,0,0,0,0,0,0,0,0,0,0,0,0,0,0,0,0,0,0,0],"sum_hessian":[1.7513787E4,1.6070309E4,1.4434797E3,4.1662725E3,1.1904035E4,9.8016205E2,4.6331775E2,4.044364E3,1.2190874E2,8.671731E1,1.1817318E4,9.2970874E2,5.045327E1,1.9402577E2,2.69292E2,1.4649423E3,2.5794216E3,7.071324E1,5.1195496E1,6.134924E1,2.5368067E1,1.8132472E3,1.0004071E4,6.793103E1,1.2609474E2,2.134009E2,5.5891094E1,6.802115E2,7.847308E2,1.1821896E3,1.3972322E3,5.259234E1,1.81209E1,1.9067657E1,3.212784E1,4.6478737E1,1.4870501E1,1.6905304E3,1.2271676E2,9.412247E3,5.9182416E2,1.8190329E2,3.1497597E1,3.796903E2,4.0504047E2,1.3586409E3,3.8591255E1,2.6366413E1,2.0112326E1,1.8715738E2,1.503373E3,1.047128E3,8.365119E3,1.747042E1,2.1120834E1,1.2346016E2,6.3697216E1,9.51714E2,5.51659E2,9.686302E2,7.849781E1,3.7593027E3,4.6058164E3,1.5100294E2,8.0071106E2,1.4658725E2,4.0507178E2,3.4551387E3,3.041639E2,4.0831445E3,5.226717E2,2.9943827E1,1.2105913E2,2.890297E2,5.1168137E2,6.872141E2,2.7679246E3,1.7348117E2,1.3068274E2,3.639446E3,4.4369843E2,1.8083711E2,3.418346E2,2.6336743E2,2.5662252E1,9.272946E1,5.944847E2,3.624045E3,1.5401148E1,4.2575824E2,1.7940197E1,6.7627686E1,2.5101776E1,3.9119058E2,2.0329408E2],"tree_param":{"num_deleted":"0","num_feature":"41","num_nodes":"95","size_leaf_vector":"0"}},{"base_weights":[5.134567E-2,-6.447648E-2,4.2268828E-1,-1.1034147E-1,2.508558E-2,9.678189E-1,4.0896776E-1,-3.928194E-1,-4.5960393E-2,-1.8611194E-1,1.6683215E-1,1.3075753E0,-0E0,4.42366E-1,6.215795E-2,-5.2425995E-2,1.5517932E-1,-7.3107815E-1,7.478695E-2,3.9187747E-1,1.18871E0,-1.3288854E-1,4.5889091E-1,-3.5947036E-2,-3.1699482E-1,-0E0,4.061677E-1,-0E0,-8.498771E-1,-3.295834E-2,1.13720275E-1,4.9262473E-1,-0E0,-0E0,-3.695938E-1,-0E0,6.352665E-1,-2.5441922E-2,-3.6405998E-1,-7.9420084E-1,-1.229977E-1,-9.6258974E-1,-0E0,2.89206E-3,-1.9387768E-1,1.7955564E-1,-2.8930167E-2,-7.212507E-2,3.222394E-1,-9.945988E-1,-0E0,-7.1757585E-1,-1.352448E0],"categories":[],"categories_nodes":[],"categories_segments":[],"categories_sizes":[],"default_left":[1,0,0,0,0,0,0,0,0,0,0,0,0,0,0,0,0,0,0,0,0,0,0,0,0,0,0,0,0,0,0,0,0,0,0,0,0,0,0,0,0,1,0,0,0,0,0,0,0,0,0,0,0],"id":20,"left_children":[1,3,5,7,9,11,13,-1,15,17,-1,-1,-1,19,21,23,25,27,29,31,-1,33,35,37,39,-1,-1,-1,41,43,45,-1,47,-1,-1,-1,-1,-1,-1,-1,-1,49,-1,-1,-1,-1,-1,-1,-1,51,-1,-1,-1],"loss_changes":[7.6166223E2,5.601425E1,1.6175049E1,1.2148063E2,1.0720013E2,9.483337E-3,4.2198853E1,0E0,7.893111E0,2.2515817E2,0E0,0E0,0E0,8.8613464E1,3.3949947E1,2.5656147E1,2.9271572E0,3.8539948E1,5.187117E0,2.4444946E1,0E0,6.1179867E0,3.2993164E0,2.1695364E1,1.809795E1,0E0,0E0,0E0,4.5828644E1,2.6694574E0,5.5530787E0,0E0,4.267938E0,0E0,0E0,0E0,0E0,0E0,0E0,0E0,0E0,1.1683411E1,0E0,0E0,0E0,0E0,0E0,0E0,0E0,7.6379395E-1,0E0,0E0,0E0],"parents":[2147483647,0,0,1,1,2,2,3,3,4,4,5,5,6,6,8,8,9,9,13,13,14,14,15,15,16,16,17,17,18,18,19,19,21,21,22,22,23,23,24,24,28,28,29,29,30,30,32,32,41,41,49,49],"right_children":[2,4,6,8,10,12,14,-1,16,18,-1,-1,-1,20,22,24,26,28,30,32,-1,34,36,38,40,-1,-1,-1,42,44,46,-1,48,-1,-1,-1,-1,-1,-1,-1,-1,50,-1,-1,-1,-1,-1,-1,-1,52,-1,-1,-1],"split_conditions":[-1E-5,1E0,1.1E1,5E0,1E0,1.1E1,1.1E1,-3.928194E-1,1E0,1E0,1.6683215E-1,1.3075753E0,-0E0,1.1E1,1E1,1.1E1,8E0,3E0,3E0,1.1E1,1.18871E0,9E0,5E0,1.1E1,7E0,-0E0,4.061677E-1,-0E0,1.1E1,9E0,1.1E1,4.9262473E-1,1E0,-0E0,-3.695938E-1,-0E0,6.352665E-1,-2.5441922E-2,-3.6405998E-1,-7.9420084E-1,-1.229977E-1,4E0,-0E0,2.89206E-3,-1.9387768E-1,1.7955564E-1,-2.8930167E-2,-7.212507E-2,3.222394E-1,5E0,-0E0,-7.1757585E-1,-1.352448E0],"split_indices":[10,15,12,7,24,7,7,0,29,29,0,0,0,10,10,1,1,1,1,1,0,1,1,7,7,0,0,0,1,7,1,0,24,0,0,0,0,0,0,0,0,5,0,0,0,0,0,0,0,1,0,0,0],"split_type":[0,0,0,0,0,0,0,0,0,0,0,0,0,0,0,0,0,0,0,0,0,0,0,0,0,0,0,0,0,0,0,0,0,0,0,0,0,0,0,0,0,0,0,0,0,0,0,0,0,0,0,0,0],"sum_hessian":[1.7616418E4,1.3405354E4,4.2110645E3,8.947478E3,4.457876E3,8.343774E1,4.1276265E3,1.9997528E3,6.9477246E3,1.5322312E3,2.9256445E3,6.538223E1,1.8055504E1,3.7357927E3,3.918338E2,6.784931E3,1.6279333E2,5.0984128E2,1.02238995E3,3.441028E3,2.9476462E2,2.4391068E2,1.4792313E2,6.426702E3,3.5822934E2,1.0345044E2,5.93429E1,7.922295E1,4.3061832E2,1.9556511E2,8.268248E2,3.2585798E3,1.8244832E2,1.3477309E2,1.0913757E2,2.583547E1,1.22087654E2,6.132936E3,2.9376605E2,1.1685396E2,2.4137538E2,3.8513092E2,4.5487404E1,8.595143E1,1.0961367E2,7.178954E2,1.08929436E2,1.3021466E2,5.223366E1,3.7254935E2,1.2581586E1,1.16608925E2,2.5594041E2],"tree_param":{"num_deleted":"0","num_feature":"41","num_nodes":"53","size_leaf_vector":"0"}},{"base_weights":[2.0663749E-5,4.8373795E-1,-1.4820182E-2,3.6859837E-1,-2.0494577E-2,-1.0565966E-1,4.917591E-2,-1.1241155E-1,7.749107E-1,4.6124596E-2,1.2113551E0,-1.3828713E-1,-6.2020486E-3,4.7292568E-2,7.871434E-2,-1.199245E-1,-2.1164429E-1,1.5832381E-1,-1.9819608E-1,-3.2676596E-2,1.5445054E-1,-1.3148358E-1,-7.331335E-2,-2.2540179E-1,-0E0,-2.113242E-1,-5.700512E-2,-2.820903E-1,-0E0,-1.0122838E-1,-2.8013486E-1,-1.8918672E-1,-4.2629917E-4,-3.435212E-1,-1.2901586E-1,-0E0,-2.5503319E-2,-1.650416E-1,-9.519674E-3,-2.733845E-1,-6.3174075E-1,-3.7176017E-2,-5.0265604E-1,5.3550016E-2,-4.171364E-2,-1.9803333E-1,-1.0010906E0,-1.6690248E-1,-0E0,-0E0,1.2520541E-1,-0E0,-4.4646263E-2,-9.7408794E-2,-0E0,-1.0211681E-1,3.1471235E-1,-1.1393098E-1,-0E0],"categories":[],"categories_nodes":[],"categories_segments":[],"categories_sizes":[],"default_left":[0,0,0,0,0,0,0,0,0,0,0,0,0,0,0,0,0,0,0,0,0,0,0,0,0,0,0,0,0,0,0,0,0,0,0,0,0,0,0,0,0,0,0,0,0,0,0,0,0,0,0,0,0,0,0,0,0,0,0],"id":21,"left_children":[1,-1,3,-1,5,7,9,11,-1,13,-1,15,17,-1,19,21,23,-1,-1,-1,-1,25,-1,27,-1,29,31,33,35,37,39,41,43,45,47,49,-1,-1,51,-1,-1,53,-1,55,57,-1,-1,-1,-1,-1,-1,-1,-1,-1,-1,-1,-1,-1,-1],"loss_changes":[1.0690831E2,0E0,2.6966776E1,0E0,9.6793686E1,3.151931E1,1.422505E1,1.8493156E1,0E0,5.778923E-1,0E0,4.1206436E0,3.3907307E1,0E0,7.543746E0,1.079895E0,3.4014244E0,0E0,0E0,0E0,0E0,1.9704468E1,0E0,1.0728462E1,0E0,9.1629715E0,1.3194002E1,1.9149246E0,5.2047417E-2,8.6425114E-1,4.7097626E0,1.4389057E1,3.1929376E0,3.2081753E1,2.8773212E-1,7.079473E-1,0E0,0E0,6.085661E-2,0E0,0E0,2.5565678E-1,0E0,1.7405964E1,1.857285E0,0E0,0E0,0E0,0E0,0E0,0E0,0E0,0E0,0E0,0E0,0E0,0E0,0E0,0E0],"parents":[2147483647,0,0,2,2,4,4,5,5,6,6,7,7,9,9,11,11,12,12,14,14,15,15,16,16,21,21,23,23,25,25,26,26,27,27,28,28,29,29,30,30,31,31,32,32,33,33,34,34,35,35,38,38,41,41,43,43,44,44],"right_children":[2,-1,4,-1,6,8,10,12,-1,14,-1,16,18,-1,20,22,24,-1,-1,-1,-1,26,-1,28,-1,30,32,34,36,38,40,42,44,46,48,50,-1,-1,52,-1,-1,54,-1,56,58,-1,-1,-1,-1,-1,-1,-1,-1,-1,-1,-1,-1,-1,-1],"split_conditions":[1.1E1,4.8373795E-1,1E1,3.6859837E-1,8E0,1E0,1E0,1E0,7.749107E-1,1E0,1.2113551E0,7E0,5E0,4.7292568E-2,1E1,1E0,1E0,1.5832381E-1,-1.9819608E-1,-3.2676596E-2,1.5445054E-1,1E0,-7.331335E-2,1E0,-0E0,5E0,6E0,9E0,1E1,4E0,1E0,4E0,9E0,7E0,1.1E1,8E0,-2.5503319E-2,-1.650416E-1,6E0,-2.733845E-1,-6.3174075E-1,3E0,-5.0265604E-1,5E0,4E0,-1.9803333E-1,-1.0010906E0,-1.6690248E-1,-0E0,-0E0,1.2520541E-1,-0E0,-4.4646263E-2,-9.7408794E-2,-0E0,-1.0211681E-1,3.1471235E-1,-1.1393098E-1,-0E0],"split_indices":[11,0,4,0,0,20,20,14,0,24,0,0,0,0,0,29,29,0,0,0,0,24,0,24,0,7,7,7,7,7,21,7,7,7,7,7,0,0,0,0,0,0,0,0,0,0,0,0,0,0,0,0,0,0,0,0,0,0,0],"split_type":[0,0,0,0,0,0,0,0,0,0,0,0,0,0,0,0,0,0,0,0,0,0,0,0,0,0,0,0,0,0,0,0,0,0,0,0,0,0,0,0,0,0,0,0,0,0,0,0,0,0,0,0,0,0,0,0,0,0,0],"sum_hessian":[1.7088785E4,6.313431E2,1.6457441E4,2.5025098E2,1.620719E4,7.364469E3,8.842722E3,7.313723E3,5.0745884E1,8.826346E3,1.637608E1,5.796763E3,1.5169601E3,7.6273936E3,1.1989519E3,4.7575327E3,1.0392303E3,7.744464E2,7.4251373E2,3.153588E2,8.8359314E2,3.8154932E3,9.420396E2,9.831878E2,5.6042534E1,1.7693726E3,2.0461205E3,7.625442E2,2.2064363E2,7.427167E2,1.0266559E3,5.543698E2,1.4917506E3,4.9229675E2,2.702474E2,1.0621768E2,1.1442595E2,4.435893E2,2.9912738E2,8.8720685E2,1.3944908E2,3.6345776E2,1.9091208E2,5.297933E2,9.6195734E2,3.7843195E2,1.1386482E2,2.4573932E2,2.4508076E1,4.165444E1,6.456324E1,2.3603487E2,6.3092525E1,1.1423558E2,2.4922218E2,2.867074E2,2.430859E2,3.890759E2,5.728815E2],"tree_param":{"num_deleted":"0","num_feature":"41","num_nodes":"59","size_leaf_vector":"0"}},{"base_weights":[-8.407091E-4,1.1170031E-1,-1.8012935E-3,-7.2546313E-3,3.0670933E-2,-2.3204678E-1,2.0140146E-1,-4.0392596E-1,1.8350042E-1,-2.74374E-1,-9.0870395E-2,2.4993119E-1,-3.2569602E-1,2.8779113E-1,-6.1439097E-1,2.4581324E-2,-2.8309277E-1,-1.7906584E-1,3.0417705E-1,-2.4224797E-3,-3.983498E-1,3.5194945E-2,-2.544838E-1],"categories":[],"categories_nodes":[],"categories_segments":[],"categories_sizes":[],"default_left":[0,0,0,1,1,1,0,0,0,0,0,0,0,0,0,0,0,0,0,0,0,0,0],"id":22,"left_children":[1,-1,3,5,7,9,11,-1,13,15,-1,17,-1,-1,-1,-1,19,-1,-1,21,-1,-1,-1],"loss_changes":[5.1451886E-1,0E0,2.7290113E0,6.920509E2,1.1845076E2,4.316858E1,1.7499448E2,0E0,5.7908306E1,1.71875E1,0E0,1.3377167E1,0E0,0E0,0E0,0E0,7.239435E1,0E0,0E0,7.760627E0,0E0,0E0,0E0],"parents":[2147483647,0,0,2,2,3,3,4,4,5,5,6,6,8,8,9,9,11,11,16,16,19,19],"right_children":[2,-1,4,6,8,10,12,-1,14,16,-1,18,-1,-1,-1,-1,20,-1,-1,22,-1,-1,-1],"split_conditions":[1E0,1.1170031E-1,1E0,6E0,4E0,4E0,1.1E1,-4.0392596E-1,1.1E1,1E1,-9.0870395E-2,9E0,-3.2569602E-1,2.8779113E-1,-6.1439097E-1,2.4581324E-2,1E0,-1.7906584E-1,3.0417705E-1,1.1E1,-3.983498E-1,3.5194945E-2,-2.544838E-1],"split_indices":[37,0,14,9,9,9,9,0,9,4,0,4,0,0,0,0,30,0,0,3,0,0,0],"split_type":[0,0,0,0,0,0,0,0,0,0,0,0,0,0,0,0,0,0,0,0,0,0,0],"sum_hessian":[1.6935424E4,5.4045742E1,1.6881377E4,1.4747221E4,2.1341565E3,7.1247646E3,7.622456E3,6.0439514E2,1.5297614E3,5.548624E3,1.5761406E3,6.935465E3,6.869911E2,1.4286552E3,1.0110624E2,1.2269817E2,5.425926E3,4.809515E1,6.8873696E3,8.53895E2,4.572031E3,6.957225E2,1.5817259E2],"tree_param":{"num_deleted":"0","num_feature":"41","num_nodes":"23","size_leaf_vector":"0"}},{"base_weights":[1.5123037E-2,-9.102164E-3,1.05263814E-1,-1.1986538E-1,1.9163582E-2,-6.343886E-1,1.5029186E-1,-1.4744455E-1,5.6547515E-2,1.4429243E-2,1.2909629E0,-1.059991E-1,-3.1917125E-1,1.2196358E-1,-5.3115654E-1,2.0058375E-2,-5.7719535E-1,-0E0,-1.4633882E-1,-4.7507942E-1,-0E0,1.3174523E-1,-0E0,1.5732361E-2,4.239613E-1,-1.1504515E0,-0E0,-3.2005021E-3,5.714388E-3,-2.2651108E-1,-0E0,4.7115546E-2,3.6111572E-1,-6.1941728E-2,2.395391E-2,8.648675E-2,-0E0,2.0617495E-1,-1.9926833E-1,-0E0,1.4608851E-1,-9.057085E-2,4.3292496E-2,1.7012605E-1,1.2336534E-2,-6.5119155E-2,-3.038796E-1],"categories":[],"categories_nodes":[],"categories_segments":[],"categories_sizes":[],"default_left":[0,0,0,1,0,0,0,1,0,1,0,0,0,0,0,1,0,0,0,0,0,0,0,0,0,0,0,0,0,0,1,0,0,1,0,0,0,0,0,0,0,0,0,0,0,0,0],"id":23,"left_children":[1,3,5,7,9,-1,-1,11,13,15,-1,17,19,21,-1,23,25,27,29,-1,-1,31,-1,33,-1,-1,-1,-1,35,-1,37,39,-1,41,43,-1,-1,-1,-1,-1,-1,45,-1,-1,-1,-1,-1],"loss_changes":[3.7540283E1,4.202898E1,4.2646893E1,1.4325184E1,3.9689796E1,0E0,0E0,1.2502697E1,6.751912E0,2.8089676E1,0E0,8.578644E0,1.1017166E1,5.238128E-1,0E0,1.0663599E1,1.4265011E1,8.756248E-3,8.096109E0,0E0,0E0,2.3994827E-1,0E0,6.0394297E0,0E0,0E0,0E0,0E0,3.3636886E-1,0E0,1.0286482E1,7.0222485E-1,0E0,2.962221E0,1.3275387E1,0E0,0E0,0E0,0E0,0E0,0E0,9.23522E-1,0E0,0E0,0E0,0E0,0E0],"parents":[2147483647,0,0,1,1,2,2,3,3,4,4,7,7,8,8,9,9,11,11,12,12,13,13,15,15,16,16,17,17,18,18,21,21,23,23,28,28,30,30,31,31,33,33,34,34,41,41],"right_children":[2,4,6,8,10,-1,-1,12,14,16,-1,18,20,22,-1,24,26,28,30,-1,-1,32,-1,34,-1,-1,-1,-1,36,-1,38,40,-1,42,44,-1,-1,-1,-1,-1,-1,46,-1,-1,-1,-1,-1],"split_conditions":[1E0,1E1,3E0,1E1,1E0,-6.343886E-1,1.5029186E-1,5E0,8E0,9E0,1.2909629E0,4E0,7E0,7E0,-5.3115654E-1,6E0,1.1E1,1E0,1E0,-4.7507942E-1,-0E0,5E0,-0E0,1.1E1,4.239613E-1,-1.1504515E0,-0E0,-3.2005021E-3,3E0,-2.2651108E-1,-1E-5,1.1E1,3.6111572E-1,-1E-5,1E0,8.648675E-2,-0E0,2.0617495E-1,-1.9926833E-1,-0E0,1.4608851E-1,1E0,4.3292496E-2,1.7012605E-1,1.2336534E-2,-6.5119155E-2,-3.038796E-1],"split_indices":[24,2,2,3,20,0,0,3,2,3,0,2,2,2,0,3,3,21,21,0,0,2,0,2,0,0,0,0,3,0,3,3,0,3,19,0,0,0,0,0,0,21,0,0,0,0,0],"split_type":[0,0,0,0,0,0,0,0,0,0,0,0,0,0,0,0,0,0,0,0,0,0,0,0,0,0,0,0,0,0,0,0,0,0,0,0,0,0,0,0,0,0,0,0,0,0,0],"sum_hessian":[1.6701578E4,1.3066609E4,3.6349675E3,2.7365142E3,1.0330096E4,9.6061905E1,3.5389058E3,2.421061E3,3.154529E2,1.0294646E4,3.544934E1,2.0025562E3,4.185049E2,2.9866354E2,1.678938E1,1.0216267E4,7.837993E1,5.513021E2,1.451254E3,3.3998505E2,7.851987E1,2.861352E2,1.2528347E1,1.011866E4,9.760579E1,4.3615955E1,3.4763973E1,3.627423E2,1.885598E2,1.0920836E3,3.5917047E2,2.3477176E2,5.1363434E1,8.390351E2,9.279626E3,6.546801E1,1.230918E2,1.6019504E2,1.9897545E2,1.5280653E2,8.196522E1,7.37271E2,1.0176408E2,8.749614E2,8.404664E3,6.596068E2,7.76642E1],"tree_param":{"num_deleted":"0","num_feature":"41","num_nodes":"47","size_leaf_vector":"0"}},{"base_weights":[7.781445E-4,-7.612832E-2,5.146198E-2,-1.5950716E-1,-1.7737886E-3,4.2740487E-2,1.5869908E-1,-0E0,-1.6641277E-1,-1.5563717E-1,2.0905681E-2,3.2116234E-2,1.476508E-1,-0E0,2.2444628E-1,-0E0,1.4963318E-1,-6.317317E-2,-1.7609748E-1,-7.342671E-2,-3.052802E-1,-1.2882794E-2,4.0900506E-2,5.295458E-2,-4.3713422E-3,1.7021109E-1,-0E0,-0E0,-8.195101E-2,1.7860316E-1,-1.8330951E-1,-2.3219177E-1,-4.4904545E-2,-0E0,-3.762824E-1,-0E0,-4.128799E-1,2.0489544E-1,-9.938778E-2,2.0215799E-1,-2.1553943E-1,1.7563105E-1,-5.7695746E-2,-1.5717666E-1,7.0381194E-2,2.8652033E-1,-0E0,-6.449725E-2,-6.6505444E-1,-2.0120366E-1,-0E0,2.5137547E-1,-2.3024957E-1,-3.6223345E-2,2.8308374E-1,8.020047E-2,2.4438806E-1,-1.4756533E-2,-1.8577665E-1,-1.4020242E-1,1.6360395E-1,-3.550734E-2,-0E0,1.683943E-1,-2.5270298E-2,-4.8780095E-2,4.085396E-2],"categories":[],"categories_nodes":[],"categories_segments":[],"categories_sizes":[],"default_left":[0,0,0,0,0,1,0,0,0,0,0,0,0,0,0,0,0,1,0,0,0,0,0,0,0,1,0,0,0,0,0,0,0,0,0,0,0,0,0,0,0,0,0,0,0,0,0,0,0,0,0,0,0,0,0,0,0,0,0,0,0,0,0,0,1,0,0],"id":24,"left_children":[1,3,5,7,9,11,13,15,17,19,21,23,25,-1,-1,27,-1,29,31,33,35,37,39,41,43,45,-1,-1,-1,-1,-1,47,49,-1,-1,-1,-1,-1,51,53,-1,55,57,-1,59,-1,61,-1,-1,-1,-1,-1,-1,-1,-1,-1,-1,63,-1,-1,-1,-1,-1,-1,65,-1,-1],"loss_changes":[6.441264E1,3.853573E1,7.196766E0,4.246353E0,1.3743747E1,8.508314E0,3.7134953E0,6.6296035E-1,2.4436188E-1,2.1089401E0,2.3352602E0,7.1221876E0,2.8664646E0,0E0,0E0,1.5965977E-1,0E0,6.70265E0,1.5744057E1,8.237591E0,1.8664284E0,1.36511965E1,7.471938E1,7.873656E1,2.872277E1,1.0602514E1,0E0,0E0,0E0,0E0,0E0,9.32502E1,5.378215E0,0E0,0E0,0E0,0E0,0E0,1.878143E1,1.2226662E1,0E0,5.562729E0,1.0482091E1,0E0,2.2695572E1,0E0,3.8899332E-2,0E0,0E0,0E0,0E0,0E0,0E0,0E0,0E0,0E0,0E0,2.1973295E0,0E0,0E0,0E0,0E0,0E0,0E0,1.9745165E0,0E0,0E0],"parents":[2147483647,0,0,1,1,2,2,3,3,4,4,5,5,6,6,7,7,8,8,9,9,10,10,11,11,12,12,15,15,17,17,18,18,19,19,20,20,21,21,22,22,23,23,24,24,25,25,31,31,32,32,38,38,39,39,41,41,42,42,44,44,46,46,57,57,64,64],"right_children":[2,4,6,8,10,12,14,16,18,20,22,24,26,-1,-1,28,-1,30,32,34,36,38,40,42,44,46,-1,-1,-1,-1,-1,48,50,-1,-1,-1,-1,-1,52,54,-1,56,58,-1,60,-1,62,-1,-1,-1,-1,-1,-1,-1,-1,-1,-1,64,-1,-1,-1,-1,-1,-1,66,-1,-1],"split_conditions":[9E0,8E0,1.1E1,4E0,1E0,4E0,8E0,4E0,1E0,1.1E1,1E1,1E1,1.1E1,-0E0,2.2444628E-1,4E0,1.4963318E-1,-1E-5,7E0,7E0,4E0,4E0,6E0,1.1E1,1.1E1,1E1,-0E0,-0E0,-8.195101E-2,1.7860316E-1,-1.8330951E-1,1E0,1E0,-0E0,-3.762824E-1,-0E0,-4.128799E-1,2.0489544E-1,1E0,1E0,-2.1553943E-1,1E0,1E0,-1.5717666E-1,1E0,2.8652033E-1,1E0,-6.449725E-2,-6.6505444E-1,-2.0120366E-1,-0E0,2.5137547E-1,-2.3024957E-1,-3.6223345E-2,2.8308374E-1,8.020047E-2,2.4438806E-1,3E0,-1.8577665E-1,-1.4020242E-1,1.6360395E-1,-3.550734E-2,-0E0,1.683943E-1,-1E-5,-4.8780095E-2,4.085396E-2],"split_indices":[9,0,0,3,25,3,3,0,30,0,0,0,3,0,0,9,0,3,9,9,3,9,9,9,9,9,0,0,0,0,0,19,25,0,0,0,0,0,19,19,0,25,19,0,19,0,29,0,0,0,0,0,0,0,0,0,0,3,0,0,0,0,0,0,9,0,0],"split_type":[0,0,0,0,0,0,0,0,0,0,0,0,0,0,0,0,0,0,0,0,0,0,0,0,0,0,0,0,0,0,0,0,0,0,0,0,0,0,0,0,0,0,0,0,0,0,0,0,0,0,0,0,0,0,0,0,0,0,0,0,0,0,0,0,0,0,0],"sum_hessian":[1.6595207E4,6.505103E3,1.00901045E4,2.9959502E3,3.5091528E3,9.427142E3,6.6296313E2,9.015327E1,2.9057969E3,5.13766E2,2.9953867E3,8.65653E3,7.7061115E2,8.3460915E1,5.795022E2,4.783227E1,4.2321E1,3.4770193E2,2.558095E3,3.7958545E2,1.3418056E2,9.068325E2,2.0885542E3,5.703795E3,2.9527354E3,6.78803E2,9.180819E1,1.3859161E1,3.397311E1,6.67733E1,2.8092865E2,1.7325312E3,8.255637E2,2.7572427E2,1.03861176E2,1.3603541E1,1.2057701E2,2.4868965E2,6.581428E2,1.2368528E3,8.517014E2,2.752555E3,2.95124E3,1.1488497E3,1.8038857E3,5.2735516E2,1.514478E2,1.1396588E3,5.928725E2,2.488077E2,5.7675604E2,1.2458754E2,5.335553E2,1.18370834E2,1.1184819E3,6.567272E2,2.095828E3,2.1289307E3,8.2230927E2,4.2784927E2,1.3760364E3,4.4100395E1,1.073474E2,6.7796425E1,2.0611343E3,1.7827751E3,2.783591E2],"tree_param":{"num_deleted":"0","num_feature":"41","num_nodes":"67","size_leaf_vector":"0"}},{"base_weights":[3.8681864E-3,-0E0,1.7836517E-1,-6.922991E-2,7.9037026E-2,2.6770514E-1,-3.8674384E-1,-1.0652979E-1,-3.997362E-2,8.6919755E-2,-5.185737E-2,4.1721648E-1,-0E0,-1.4716087E-1,-5.5829402E-2,-2.999239E-2,-7.530535E-1,5.621511E-1,8.104727E-2,5.698155E-1,-0E0,1.9782814E-1,-2.2275048E-1,-3.5498343E-2,1.2758943E-1,1.0003823E-1,-1.2628786E-1,-1.9326959E-2,-9.8608956E-2,-0E0,2.386116E-1],"categories":[],"categories_nodes":[],"categories_segments":[],"categories_sizes":[],"default_left":[1,0,0,0,0,0,0,0,1,0,0,0,0,0,0,0,0,0,0,0,0,0,0,0,0,0,0,0,0,0,0],"id":25,"left_children":[1,3,5,7,9,11,-1,13,15,17,-1,19,21,-1,-1,23,-1,-1,25,-1,-1,-1,-1,27,29,-1,-1,-1,-1,-1,-1],"loss_changes":[1.1915955E1,8.722606E1,1.651722E1,7.686081E0,7.637581E0,1.6824738E1,0E0,1.656826E0,2.1805536E1,9.733849E0,0E0,4.2666855E0,3.4000049E0,0E0,0E0,3.2164745E0,0E0,0E0,3.139351E0,0E0,0E0,0E0,0E0,3.25312E0,1.7736746E0,0E0,0E0,0E0,0E0,0E0,0E0],"parents":[2147483647,0,0,1,1,2,2,3,3,4,4,5,5,7,7,8,8,9,9,11,11,12,12,15,15,18,18,23,23,24,24],"right_children":[2,4,6,8,10,12,-1,14,16,18,-1,20,22,-1,-1,24,-1,-1,26,-1,-1,-1,-1,28,30,-1,-1,-1,-1,-1,-1],"split_conditions":[6E0,9E0,1.1E1,5E0,1E0,1E1,-3.8674384E-1,1E0,-1E-5,5E0,-5.185737E-2,1E0,7E0,-1.4716087E-1,-5.5829402E-2,1E0,-7.530535E-1,5.621511E-1,1E0,5.698155E-1,-0E0,1.9782814E-1,-2.2275048E-1,8E0,4E0,1.0003823E-1,-1.2628786E-1,-1.9326959E-2,-9.8608956E-2,-0E0,2.386116E-1],"split_indices":[11,1,11,1,21,1,0,21,11,11,0,21,11,0,0,27,0,0,23,0,0,0,0,1,4,0,0,0,0,0,0],"split_type":[0,0,0,0,0,0,0,0,0,0,0,0,0,0,0,0,0,0,0,0,0,0,0,0,0,0,0,0,0,0,0],"sum_hessian":[1.6332333E4,1.5950133E4,3.8220044E2,8.536302E3,7.413831E3,3.4325696E2,3.8943474E1,3.5852153E3,4.951087E3,7.050613E3,3.6321826E2,2.3795955E2,1.052974E2,2.6640732E3,9.2114197E2,4.887253E3,6.3833675E1,7.781775E1,6.972795E3,2.0125816E2,3.670139E1,3.474611E1,7.055129E1,4.790463E3,9.6790215E1,6.9357886E3,3.7006485E1,3.560793E3,1.2296699E3,1.2667003E1,8.4123215E1],"tree_param":{"num_deleted":"0","num_feature":"41","num_nodes":"31","size_leaf_vector":"0"}},{"base_weights":[-7.504833E-4,-3.3834074E-3,2.0260508E-1,-5.5710748E-2,5.3686653E-3,3.6799783E-1,-0E0,-7.096155E-2,-0E0,-1.5548098E-2,9.763272E-2,-1.3037376E-1,1.9684939E-1,-5.189735E-2,1.580138E-2,-2.1410492E-1,3.6460997E-3,-2.241826E-1,1.3259459E-1,-1.8480335E-1,3.0568397E-1,2.9241782E-1,-1.8768402E-2,-2.2897892E-1,-0E0,-4.846217E-3,5.5994064E-2,3.490343E-1,-3.4759286E-1,1.0428775E-2,-4.6936935E-1,-0E0,-3.3664268E-1,-0E0,1.6481495E-1,5.316172E-2,6.0417326E-3,-0E0,-6.11405E-1,-3.2528412E-1,-1.722727E0],"categories":[],"categories_nodes":[],"categories_segments":[],"categories_sizes":[],"default_left":[1,0,0,1,0,0,0,1,0,0,0,1,1,0,0,0,1,0,0,0,0,0,0,0,0,0,0,0,0,0,0,0,0,0,0,0,0,0,0,0,0],"id":26,"left_children":[1,3,5,7,9,-1,-1,11,13,15,17,19,21,23,25,27,29,31,33,-1,-1,-1,-1,-1,-1,-1,-1,-1,-1,35,37,-1,-1,-1,-1,-1,-1,-1,39,-1,-1],"loss_changes":[6.462396E0,7.912186E0,4.7841907E0,2.4819665E0,2.710446E1,0E0,0E0,3.1449562E1,1.8723361E-1,4.413078E1,2.8308014E1,1.4626572E1,5.9207306E0,3.893048E-1,7.403089E-1,3.939458E1,2.6812168E1,5.184263E0,3.115448E0,0E0,0E0,0E0,0E0,0E0,0E0,0E0,0E0,0E0,0E0,1.2478573E0,6.2523556E0,0E0,0E0,0E0,0E0,0E0,0E0,0E0,5.130413E0,0E0,0E0],"parents":[2147483647,0,0,1,1,2,2,3,3,4,4,7,7,8,8,9,9,10,10,11,11,12,12,13,13,14,14,15,15,16,16,17,17,18,18,29,29,30,30,38,38],"right_children":[2,4,6,8,10,-1,-1,12,14,16,18,20,22,24,26,28,30,32,34,-1,-1,-1,-1,-1,-1,-1,-1,-1,-1,36,38,-1,-1,-1,-1,-1,-1,-1,40,-1,-1],"split_conditions":[1E1,4E0,1E1,5E0,1E0,3.6799783E-1,-0E0,6E0,7E0,7E0,8E0,-1E-5,-1E-5,1E1,8E0,7E0,-1E-5,5E0,6E0,-1.8480335E-1,3.0568397E-1,2.9241782E-1,-1.8768402E-2,-2.2897892E-1,-0E0,-4.846217E-3,5.5994064E-2,3.490343E-1,-3.4759286E-1,1E0,1E0,-0E0,-3.3664268E-1,-0E0,1.6481495E-1,5.316172E-2,6.0417326E-3,-0E0,7E0,-3.2528412E-1,-1.722727E0],"split_indices":[11,0,0,3,24,0,0,10,10,10,10,4,3,3,4,11,11,11,11,0,0,0,0,0,0,0,0,0,0,25,25,0,0,0,0,0,0,0,11,0,0],"split_type":[0,0,0,0,0,0,0,0,0,0,0,0,0,0,0,0,0,0,0,0,0,0,0,0,0,0,0,0,0,0,0,0,0,0,0,0,0,0,0,0,0],"sum_hessian":[1.6207292E4,1.60541455E4,1.5314716E2,2.4824343E3,1.3571711E4,1.1691069E2,3.623646E1,2.0229419E3,4.5949228E2,1.0965315E4,2.6063953E3,1.6896425E3,3.3329953E2,2.9634882E1,4.298574E2,1.0176052E3,9.94771E3,2.2422606E2,2.3821692E3,1.6172814E3,7.236106E1,3.1498856E2,1.8310982E1,1.2769674E1,1.6865208E1,4.35238E1,3.863336E2,1.14604576E2,9.030006E2,9.83029E3,1.1742056E2,1.6578545E1,2.0764752E2,1.2846437E1,2.3693228E3,1.0593124E3,8.770978E3,3.1505655E1,8.591491E1,7.050328E1,1.5411628E1],"tree_param":{"num_deleted":"0","num_feature":"41","num_nodes":"41","size_leaf_vector":"0"}},{"base_weights":[2.7435378E-3,-1.5157472E-1,9.679672E-2,-3.260599E-1,-1.20665565E-1,1.2318484E-1,3.2747887E-2,-3.351395E-2,-1.6079156E-1,-0E0,1.2899244E-1,5.6225143E-2,-1.3732942E0,-1.14962466E-1,-2.6098778E-4,-1.1752933E-1,-1.7199168E0,3.6337894E-1,-1.01248056E-1,1.3942717E-1,-0E0,1.8752362E-1,-2.0358568E-2,-0E0,-1.838238E-1,-3.33834E-1,4.2835686E-2,-5.508883E-1,-3.6867715E-2,-0E0,5.67221E-1,1.5153447E-1,-2.0243026E-1,3.3044562E-1,6.454589E-2,-1.5970565E-1,1.20424114E-1,2.7872937E-2,3.02766E-1,-2.7797535E-1,-7.2272453E-3,-2.620482E-2,1.4906532E-1,-2.5503375E-2,-2.1569812E-1,-3.1923857E-1,-0E0,4.850058E-1,2.7175775E-1,1.15737684E-1,6.0159497E-2,-0E0,-2.1813293E-1,5.731075E-2,3.789049E-1,-0E0,8.185851E-2,4.9458015E-1,1.2780666E-1,-2.3434762E-2,5.9843365E-2],"categories":[],"categories_nodes":[],"categories_segments":[],"categories_sizes":[],"default_left":[0,0,0,0,0,0,0,0,0,0,0,0,0,0,0,0,0,0,0,0,0,0,0,0,0,0,0,0,0,0,0,0,0,0,0,0,0,0,0,0,0,0,0,0,0,0,0,0,0,0,0,0,0,0,0,0,0,0,0,0,0],"id":27,"left_children":[1,3,5,-1,7,9,11,13,15,17,19,21,-1,23,25,27,-1,29,31,33,35,37,39,-1,-1,-1,41,-1,43,-1,-1,-1,45,47,49,51,53,55,57,-1,59,-1,-1,-1,-1,-1,-1,-1,-1,-1,-1,-1,-1,-1,-1,-1,-1,-1,-1,-1,-1],"loss_changes":[2.3344914E2,1.8308289E1,1.5275925E1,0E0,1.4982368E1,3.5861435E0,7.2693146E1,3.1412396E0,1.6335802E2,1.7652367E1,8.066994E0,3.2117916E1,0E0,1.9460444E0,1.7729033E1,8.221486E1,0E0,3.1990528E0,7.529387E0,8.239101E1,1.0087639E1,1.7703945E1,2.4789176E0,0E0,0E0,0E0,6.7239256E0,0E0,3.5411777E0,0E0,0E0,0E0,5.3584213E0,5.879547E0,3.843727E-1,2.8762913E-1,5.9894085E-1,1.2202923E0,7.9803085E0,0E0,9.2845535E-1,0E0,0E0,0E0,0E0,0E0,0E0,0E0,0E0,0E0,0E0,0E0,0E0,0E0,0E0,0E0,0E0,0E0,0E0,0E0,0E0],"parents":[2147483647,0,0,1,1,2,2,4,4,5,5,6,6,7,7,8,8,9,9,10,10,11,11,13,13,14,14,15,15,17,17,18,18,19,19,20,20,21,21,22,22,26,26,28,28,32,32,33,33,34,34,35,35,36,36,37,37,38,38,40,40],"right_children":[2,4,6,-1,8,10,12,14,16,18,20,22,-1,24,26,28,-1,30,32,34,36,38,40,-1,-1,-1,42,-1,44,-1,-1,-1,46,48,50,52,54,56,58,-1,60,-1,-1,-1,-1,-1,-1,-1,-1,-1,-1,-1,-1,-1,-1,-1,-1,-1,-1,-1,-1],"split_conditions":[7E0,3E0,1E0,-3.260599E-1,1E0,1E0,1E0,1E0,1E0,8E0,1.1E1,1E1,-1.3732942E0,5E0,3E0,6E0,-1.7199168E0,6E0,4E0,7E0,9E0,5E0,7E0,-0E0,-1.838238E-1,-3.33834E-1,6E0,-5.508883E-1,1.1E1,-0E0,5.67221E-1,1.5153447E-1,1.1E1,5E0,9E0,4E0,1.1E1,3E0,9E0,-2.7797535E-1,1.1E1,-2.620482E-2,1.4906532E-1,-2.5503375E-2,-2.1569812E-1,-3.1923857E-1,-0E0,4.850058E-1,2.7175775E-1,1.15737684E-1,6.0159497E-2,-0E0,-2.1813293E-1,5.731075E-2,3.789049E-1,-0E0,8.185851E-2,4.9458015E-1,1.2780666E-1,-2.3434762E-2,5.9843365E-2],"split_indices":[8,8,15,0,25,25,25,15,15,8,8,8,0,1,1,1,0,1,1,1,1,1,4,0,0,0,1,0,1,0,0,0,1,1,1,1,1,1,1,0,1,0,0,0,0,0,0,0,0,0,0,0,0,0,0,0,0,0,0,0,0],"split_type":[0,0,0,0,0,0,0,0,0,0,0,0,0,0,0,0,0,0,0,0,0,0,0,0,0,0,0,0,0,0,0,0,0,0,0,0,0,0,0,0,0,0,0,0,0,0,0,0,0,0,0,0,0,0,0,0,0,0,0,0,0],"sum_hessian":[1.6126182E4,6.0618765E3,1.0064306E4,1.1597113E3,4.902165E3,7.0047163E3,3.0595889E3,1.6328594E3,3.2693057E3,4.010212E2,6.6036953E3,3.0092139E3,5.0375042E1,3.7641144E2,1.256448E3,3.1706553E3,9.865041E1,1.1114873E2,2.8987247E2,6.067207E3,5.364883E2,1.1620688E3,1.847145E3,8.347828E1,2.9293317E2,2.026944E2,1.0537535E3,5.7726215E2,2.5933933E3,3.1693727E1,7.9455E1,5.532421E1,2.3454826E2,1.6667656E3,4.4004414E3,2.0958867E2,3.2689963E2,5.2763745E2,6.344314E2,5.8298264E1,1.7888467E3,5.123387E2,5.414149E2,2.4098792E3,1.8351395E2,2.1008264E2,2.4465614E1,9.024172E2,7.6434845E2,1.109401E3,3.2910403E3,4.0255795E1,1.6933287E2,2.801384E2,4.6761208E1,1.7968599E2,3.4795148E2,3.6898395E2,2.6544745E2,1.6308353E3,1.5801134E2],"tree_param":{"num_deleted":"0","num_feature":"41","num_nodes":"61","size_leaf_vector":"0"}},{"base_weights":[1.2830751E-3,-1.4653309E-2,1.2375109E-2,4.3704797E-2,-3.257399E-2,7.89732E-3,3.1180015E-2,4.6277144E-3,6.945268E-2,-0E0,-5.4319557E-2,-2.211035E-3,1.9148573E-2,1.2214245E-1,-4.5893778E-4,1.1554576E-2,-0E0,2.7480036E-2,1.8023327E-1,-6.709218E-2,-0E0,1.3005359E-3,-7.9463184E-2],"categories":[],"categories_nodes":[],"categories_segments":[],"categories_sizes":[],"default_left":[0,0,0,0,0,0,0,0,0,0,0,0,0,0,0,0,0,0,0,0,0,0,0],"id":28,"left_children":[1,3,5,7,9,11,13,15,17,-1,19,-1,-1,-1,21,-1,-1,-1,-1,-1,-1,-1,-1],"loss_changes":[2.7863111E0,6.2726192E0,3.8979805E-1,4.7529387E-1,3.9026122E0,8.205197E-1,4.284877E0,3.8739346E-2,3.5978007E-1,0E0,5.3856087E-1,0E0,0E0,0E0,8.148598E-1,0E0,0E0,0E0,0E0,0E0,0E0,0E0,0E0],"parents":[2147483647,0,0,1,1,2,2,3,3,4,4,5,5,6,6,7,7,8,8,10,10,14,14],"right_children":[2,4,6,8,10,12,14,16,18,-1,20,-1,-1,-1,22,-1,-1,-1,-1,-1,-1,-1,-1],"split_conditions":[7E0,1E0,1E0,4E0,4E0,1E1,1E1,1E0,1E0,-0E0,1E0,-2.211035E-3,1.9148573E-2,1.2214245E-1,1E0,1.1554576E-2,-0E0,2.7480036E-2,1.8023327E-1,-6.709218E-2,-0E0,1.3005359E-3,-7.9463184E-2],"split_indices":[1,30,24,1,1,1,1,16,16,0,20,0,0,0,16,0,0,0,0,0,0,0,0],"split_type":[0,0,0,0,0,0,0,0,0,0,0,0,0,0,0,0,0,0,0,0,0,0,0],"sum_hessian":[1.5905882E4,6.1160986E3,9.789783E3,1.2911044E3,4.8249946E3,8.384629E3,1.4051545E3,6.843678E2,6.067365E2,1.767263E3,3.0577314E3,3.1865312E3,5.198097E3,5.417339E2,8.6342065E2,5.7202185E2,1.1234595E2,4.7304935E2,1.336872E2,3.037951E3,1.9780565E1,6.790117E2,1.8440892E2],"tree_param":{"num_deleted":"0","num_feature":"41","num_nodes":"23","size_leaf_vector":"0"}},{"base_weights":[2.4974714E-3,3.955796E-2,-3.3438675E-2,-9.196749E-2,1.14799224E-1,-1.4628766E-1,-7.2702137E-3,-1.519825E-1,-6.284324E-2,2.119579E-1,1.01760095E-2,-1.9327573E-1,-0E0,-3.0290935E-2,-1.7963485E-1,4.0002432E-1,2.042777E-1,-1.03369905E-2,2.8661367E-1,-0E0,5.221456E-1,1.0650271E-2,-1.2511885E0,4.0988535E-1,-9.598057E-1,1.0651482E0,2.90034E-1,-1.5394711E-1,6.2377495E-1,1.7998432E-1,1.2055564E0,-2.5809074E-2,-5.9210986E-1,2.2860667E-1,1.2089322E0,-2.9533297E-1,2.3790438E-2,-8.350297E-1,-0E0,4.175943E-1,-0E0],"categories":[],"categories_nodes":[],"categories_segments":[],"categories_sizes":[],"default_left":[0,1,1,0,0,0,0,0,0,0,0,0,0,0,0,0,0,0,0,0,0,0,0,0,0,0,0,0,0,0,0,0,0,0,0,0,0,0,0,0,0],"id":29,"left_children":[1,3,5,7,9,-1,-1,11,13,15,17,-1,-1,-1,-1,19,-1,21,23,-1,25,27,-1,29,-1,-1,-1,31,33,-1,-1,35,37,39,-1,-1,-1,-1,-1,-1,-1],"loss_changes":[2.1243023E1,7.922127E1,1.7830929E1,2.5922775E0,4.967296E1,0E0,0E0,1.7795563E-1,4.745468E0,1.3807747E1,1.7390945E1,0E0,0E0,0E0,0E0,2.2746284E1,0E0,6.1804016E1,2.4090727E1,0E0,2.1333519E1,2.3298138E2,0E0,1.806984E1,0E0,0E0,0E0,9.2219185E1,6.1456085E1,0E0,0E0,1.6524122E1,3.1480927E1,4.3026533E0,0E0,0E0,0E0,0E0,0E0,0E0,0E0],"parents":[2147483647,0,0,1,1,2,2,3,3,4,4,7,7,8,8,9,9,10,10,15,15,17,17,18,18,20,20,21,21,23,23,27,27,28,28,31,31,32,32,33,33],"right_children":[2,4,6,8,10,-1,-1,12,14,16,18,-1,-1,-1,-1,20,-1,22,24,-1,26,28,-1,30,-1,-1,-1,32,34,-1,-1,36,38,40,-1,-1,-1,-1,-1,-1,-1],"split_conditions":[1E0,-1E-5,-1E-5,1E0,1E0,-1.4628766E-1,-7.2702137E-3,1E0,1E0,4E0,1.1E1,-1.9327573E-1,-0E0,-3.0290935E-2,-1.7963485E-1,1E0,2.042777E-1,1E0,1E0,-0E0,5E0,1E1,-1.2511885E0,9E0,-9.598057E-1,1.0651482E0,2.90034E-1,1E1,9E0,1.7998432E-1,1.2055564E0,4E0,1E0,6E0,1.2089322E0,-2.9533297E-1,2.3790438E-2,-8.350297E-1,-0E0,4.175943E-1,-0E0],"split_indices":[19,9,9,15,15,0,0,29,29,9,9,0,0,0,0,25,0,25,25,0,8,8,0,8,0,0,0,9,9,0,0,9,27,9,0,0,0,0,0,0,0],"split_type":[0,0,0,0,0,0,0,0,0,0,0,0,0,0,0,0,0,0,0,0,0,0,0,0,0,0,0,0,0,0,0,0,0,0,0,0,0,0,0,0,0],"sum_hessian":[1.5899325E4,7.979551E3,7.9197744E3,2.8499314E3,5.129619E3,1.7684194E3,6.151355E3,8.06361E2,2.0435704E3,2.604565E3,2.5250542E3,7.1998364E2,8.637736E1,1.5187025E3,5.2486786E2,4.1903647E2,2.1855283E3,2.3132063E3,2.1184807E2,8.9671036E1,3.2936545E2,2.2567761E3,5.6430088E1,1.9949728E2,1.2350793E1,1.2492218E2,2.0444325E2,1.7648707E3,4.9190533E2,1.5214574E2,4.7351547E1,1.3851907E3,3.7968008E2,2.5764633E2,2.3425902E2,2.7889606E2,1.1062947E3,3.376242E2,4.2055878E1,1.4571329E2,1.1193304E2],"tree_param":{"num_deleted":"0","num_feature":"41","num_nodes":"41","size_leaf_vector":"0"}},{"base_weights":[1.1343733E-2,-1.8385194E-2,1.8902248E-1,-6.523362E-2,3.271307E-2,3.1961167E-1,-0E0,-8.74819E-2,9.566255E-2,-0E0,3.8627204E-2,4.2998317E-1,-7.509194E-1,8.054643E-3,-1.4550963E-1,4.76759E-2,-0E0],"categories":[],"categories_nodes":[],"categories_segments":[],"categories_sizes":[],"default_left":[1,0,0,0,0,0,0,0,0,0,0,0,0,0,0,0,0],"id":30,"left_children":[1,3,5,7,9,11,13,-1,-1,-1,15,-1,-1,-1,-1,-1,-1],"loss_changes":[8.604926E1,3.2904213E1,6.0452713E1,8.205561E0,1.1347609E0,5.0323563E1,1.7537485E0,0E0,0E0,0E0,4.876442E-1,0E0,0E0,0E0,0E0,0E0,0E0],"parents":[2147483647,0,0,1,1,2,2,3,3,4,4,5,5,6,6,10,10],"right_children":[2,4,6,8,10,12,14,-1,-1,-1,16,-1,-1,-1,-1,-1,-1],"split_conditions":[6E0,9E0,9E0,1E0,1E1,1E0,1.1E1,-8.74819E-2,9.566255E-2,-0E0,1E0,4.2998317E-1,-7.509194E-1,8.054643E-3,-1.4550963E-1,4.76759E-2,-0E0],"split_indices":[10,1,1,27,1,27,1,0,0,0,17,0,0,0,0,0,0],"split_type":[0,0,0,0,0,0,0,0,0,0,0,0,0,0,0,0,0],"sum_hessian":[1.5931152E4,1.3594058E4,2.3370942E3,7.205474E3,6.3885835E3,1.4092181E3,9.278761E2,6.905716E3,2.9975854E2,1.0460007E3,5.342583E3,1.3635271E3,4.5690994E1,8.119218E2,1.1595426E2,5.323036E3,1.9546629E1],"tree_param":{"num_deleted":"0","num_feature":"41","num_nodes":"17","size_leaf_vector":"0"}},{"base_weights":[1.5725563E-3,3.0107288E-2,-3.0593628E-2,3.3564053E-2,-1.6910703E-1,2.0254647E-2,8.4995724E-2,9.5170304E-2,-1.8823678E-2,-2.3607044E-1,1.7498368E-1,-2.4423994E-2,-0E0,-0E0,-2.852424E-1,-4.487882E-1,-2.718171E-3,-0E0,-7.278756E-2],"categories":[],"categories_nodes":[],"categories_segments":[],"categories_sizes":[],"default_left":[0,0,0,1,0,0,0,0,1,0,0,0,0,0,0,0,0,0,0],"id":31,"left_children":[1,3,-1,5,-1,7,9,-1,11,13,-1,-1,-1,-1,15,-1,17,-1,-1],"loss_changes":[1.2261434E1,3.4752393E0,0E0,4.163413E0,0E0,1.542392E1,2.7157085E1,0E0,1.9251406E-1,2.9283123E0,0E0,0E0,0E0,0E0,2.0028973E-1,0E0,7.877075E-2,0E0,0E0],"parents":[2147483647,0,0,1,1,3,3,5,5,6,6,8,8,9,9,14,14,16,16],"right_children":[2,4,-1,6,-1,8,10,-1,12,14,-1,-1,-1,-1,16,-1,18,-1,-1],"split_conditions":[1E0,1E0,-3.0593628E-2,3E0,-1.6910703E-1,7E0,4E0,9.5170304E-2,-1E-5,4E0,1.7498368E-1,-2.4423994E-2,-0E0,-0E0,9E0,-4.487882E-1,1.1E1,-0E0,-7.278756E-2],"split_indices":[19,23,0,3,0,8,8,0,3,3,0,0,0,0,3,0,3,0,0],"split_type":[0,0,0,0,0,0,0,0,0,0,0,0,0,0,0,0,0,0,0],"sum_hessian":[1.5759973E4,7.884204E3,7.875769E3,7.7920146E3,9.2189445E1,6.361934E3,1.4300803E3,2.6395527E3,3.7223813E3,2.0022464E2,1.2298557E3,3.6240837E3,9.829759E1,2.7100842E1,1.7312381E2,1.0143699E2,7.168682E1,5.0307972E1,2.1378845E1],"tree_param":{"num_deleted":"0","num_feature":"41","num_nodes":"19","size_leaf_vector":"0"}},{"base_weights":[-6.489697E-4,-3.176041E-2,9.167277E-2,-3.2747597E-3,-1.074863E-1,1.113466E-1,-0E0,-6.542048E-2,3.5382383E-2,-2.1086776E-1,-5.5738598E-2,1.7603844E-1,6.703356E-2,-2.9391584E-1,8.7617E-2,-2.6601404E-1,-6.217501E-2,-0E0,4.3256443E-2,-2.5416353E-1,2.0660017E-1,3.967772E-2,-9.7752444E-2,2.3477508E-1,-1.7743072E-1,1.0822689E-1,-1.1069698E0,2.828716E-1,-0E0,-4.8625794E-1,-2.0392722E-1,5.9283372E-2,-0E0,-0E0,-6.4690256E-1,-9.441044E-1,1.2597233E-1,9.118386E-2,-0E0],"categories":[],"categories_nodes":[],"categories_segments":[],"categories_sizes":[],"default_left":[1,1,0,0,0,0,0,0,0,0,0,1,0,0,1,0,0,0,0,0,0,1,0,0,0,0,0,0,0,0,1,1,0,0,0,0,0,0,0],"id":32,"left_children":[1,3,5,7,9,11,13,15,17,19,21,23,25,-1,27,-1,-1,-1,-1,29,-1,31,-1,-1,-1,-1,-1,-1,-1,33,35,37,-1,-1,-1,-1,-1,-1,-1],"loss_changes":[4.4515972E1,2.4342321E1,8.193699E0,2.1287045E1,1.3801052E1,6.7205925E0,1.4361813E1,4.2350826E0,7.847071E-2,1.7079422E1,5.826436E0,8.650028E0,3.852589E1,0E0,7.2248073E0,0E0,0E0,0E0,0E0,2.827942E0,0E0,6.611614E-1,0E0,0E0,0E0,0E0,0E0,0E0,0E0,2.5411568E0,1.4886935E2,7.297746E-1,0E0,0E0,0E0,0E0,0E0,0E0,0E0],"parents":[2147483647,0,0,1,1,2,2,3,3,4,4,5,5,6,6,7,7,8,8,9,9,10,10,11,11,12,12,14,14,19,19,21,21,29,29,30,30,31,31],"right_children":[2,4,6,8,10,12,14,16,18,20,22,24,26,-1,28,-1,-1,-1,-1,30,-1,32,-1,-1,-1,-1,-1,-1,-1,34,36,38,-1,-1,-1,-1,-1,-1,-1],"split_conditions":[7E0,-1E-5,1.1E1,7E0,1E0,1E0,1E0,1E0,1E0,1E0,6E0,-1E-5,1E0,-2.9391584E-1,-1E-5,-2.6601404E-1,-6.217501E-2,-0E0,4.3256443E-2,1E0,2.0660017E-1,-1E-5,-9.7752444E-2,2.3477508E-1,-1.7743072E-1,1.0822689E-1,-1.1069698E0,2.828716E-1,-0E0,4E0,6E0,1.1E1,-0E0,-0E0,-6.4690256E-1,-9.441044E-1,1.2597233E-1,9.118386E-2,-0E0],"split_indices":[2,2,2,8,15,15,15,25,25,33,3,3,25,0,3,0,0,0,0,25,0,5,0,0,0,0,0,0,0,9,9,9,0,0,0,0,0,0,0],"split_type":[0,0,0,0,0,0,0,0,0,0,0,0,0,0,0,0,0,0,0,0,0,0,0,0,0,0,0,0,0,0,0,0,0,0,0,0,0,0,0],"sum_hessian":[1.5730465E4,1.1855691E4,3.8747732E3,8.721732E3,3.133959E3,3.2873499E3,5.874234E2,3.4550254E3,5.266707E3,9.737073E2,2.1602517E3,1.2343348E3,2.053015E3,1.8684142E2,4.0058197E2,2.0702225E2,3.2480032E3,1.6656021E2,5.100147E3,9.010143E2,7.2692986E1,3.7096097E2,1.7892908E3,1.1940227E3,4.031205E1,2.016584E3,3.643102E1,1.8408951E2,2.1649248E2,1.20888405E2,7.8012585E2,3.5427756E2,1.6683409E1,1.4513623E1,1.0637478E2,2.820545E2,4.9807138E2,3.3972278E2,1.4554791E1],"tree_param":{"num_deleted":"0","num_feature":"41","num_nodes":"39","size_leaf_vector":"0"}},{"base_weights":[-6.1663287E-4,-6.576067E-2,2.0035247E-3,-0E0,-2.519777E-1,7.3320554E-3,-2.032738E-2,-2.3699297E-2,1.5534423E-1,-7.6766914E-1,-2.3696885E-2,-4.6051925E-4,4.512998E-2,-2.2658302E-2,-0E0,-3.9925303E-2,-0E0,-1.5771244E-1,-0E0,-2.3360907E-3,2.6019333E-2,-3.335393E-1,1.0114437E-1,-0E0,-2.6686225E-2,-6.259365E-4,-2.093746E-1,-0E0,3.1863846E-2,-0E0,-5.214846E-1,2.7305683E-1,-3.803407E-2,5.8380165E-4,-2.597481E-1,-0E0,1.0340063E-1,6.023177E-1,-0E0,-2.0937534E-2,-6.129694E-1,3.7836442E-3,-1.8389847E-2,-0E0,-2.943252E-1,-2.7299352E-2,-0E0,3.7709408E-2,-7.347927E-2,-1.4445837E-1,3.0081797E-1,-9.834953E-1,-0E0,1.5006134E-1,-8.800696E-2,1.0360157E0,-4.534492E-1,1.743502E-1,3.0116327E-2,-1.0020832E-1,-4.5754607E-3,4.665883E-1,-0E0,-0E0,3.3623844E-1,-1.1990486E-1,-0E0,-5.890844E-1,-0E0],"categories":[],"categories_nodes":[],"categories_segments":[],"categories_sizes":[],"default_left":[0,1,1,1,0,1,0,1,0,0,1,1,0,0,0,0,0,0,0,0,0,0,0,0,0,1,0,0,0,0,0,0,1,0,0,0,0,0,0,0,0,0,1,0,1,0,1,0,1,0,0,0,0,0,0,0,0,0,0,0,0,0,0,0,0,0,0,0,0],"id":33,"left_children":[1,3,5,7,9,11,13,15,-1,-1,17,19,21,23,-1,-1,-1,-1,-1,25,27,29,-1,-1,31,33,-1,-1,35,-1,-1,37,39,41,43,-1,-1,-1,-1,45,-1,47,49,-1,51,53,55,57,59,-1,61,-1,-1,63,65,-1,67,-1,-1,-1,-1,-1,-1,-1,-1,-1,-1,-1,-1],"loss_changes":[3.3631377E0,6.836763E0,1.6147126E0,7.9570735E-1,6.8222733E0,4.130892E0,2.3788643E-1,3.0240622E-1,0E0,0E0,1.6760876E0,2.3257282E-1,3.237293E1,2.4783874E-1,0E0,0E0,0E0,0E0,0E0,9.167269E-1,4.4550017E-2,6.803364E0,0E0,0E0,4.534479E0,5.918094E0,0E0,0E0,1.3128072E-1,0E0,0E0,7.368283E-1,1.0782639E1,4.2030305E-1,3.306861E-1,0E0,0E0,0E0,0E0,9.6981764E-2,0E0,2.244471E1,2.6880655E1,0E0,1.0970598E1,1.3451215E1,2.716688E2,6.432807E0,8.633251E-1,0E0,6.454811E0,0E0,0E0,8.703476E0,2.177565E0,0E0,5.255417E0,0E0,0E0,0E0,0E0,0E0,0E0,0E0,0E0,0E0,0E0,0E0,0E0],"parents":[2147483647,0,0,1,1,2,2,3,3,4,4,5,5,6,6,7,7,10,10,11,11,12,12,13,13,19,19,20,20,21,21,24,24,25,25,28,28,31,31,32,32,33,33,34,34,39,39,41,41,42,42,44,44,45,45,46,46,47,47,48,48,50,50,53,53,54,54,56,56],"right_children":[2,4,6,8,10,12,14,16,-1,-1,18,20,22,24,-1,-1,-1,-1,-1,26,28,30,-1,-1,32,34,-1,-1,36,-1,-1,38,40,42,44,-1,-1,-1,-1,46,-1,48,50,-1,52,54,56,58,60,-1,62,-1,-1,64,66,-1,68,-1,-1,-1,-1,-1,-1,-1,-1,-1,-1,-1,-1],"split_conditions":[3E0,7E0,9E0,6E0,9E0,5E0,1E0,8E0,1.5534423E-1,-7.6766914E-1,-1E-5,9E0,7E0,9E0,-0E0,-3.9925303E-2,-0E0,-1.5771244E-1,-0E0,1E0,1E0,1E0,1.0114437E-1,-0E0,1E0,7E0,-2.093746E-1,-0E0,1.1E1,-0E0,-5.214846E-1,1.1E1,-1E-5,1E0,1E0,-0E0,1.0340063E-1,6.023177E-1,-0E0,1E0,-6.129694E-1,1.1E1,1E1,-0E0,-1E-5,1E1,-1E-5,4E0,-1E-5,-1.4445837E-1,1.1E1,-9.834953E-1,-0E0,1E1,1E0,1.0360157E0,1.1E1,1.743502E-1,3.0116327E-2,-1.0020832E-1,-4.5754607E-3,4.665883E-1,-0E0,-0E0,3.3623844E-1,-1.1990486E-1,-0E0,-5.890844E-1,-0E0],"split_indices":[9,2,2,2,2,2,17,3,0,0,3,3,3,3,0,0,0,0,0,17,34,34,0,0,34,3,0,0,3,0,0,3,3,15,34,0,0,0,0,14,0,9,9,0,9,2,9,9,9,0,9,0,0,9,20,0,9,0,0,0,0,0,0,0,0,0,0,0,0],"split_type":[0,0,0,0,0,0,0,0,0,0,0,0,0,0,0,0,0,0,0,0,0,0,0,0,0,0,0,0,0,0,0,0,0,0,0,0,0,0,0,0,0,0,0,0,0,0,0,0,0,0,0,0,0,0,0,0,0,0,0,0,0,0,0,0,0,0,0,0,0],"sum_hessian":[1.554974E4,7.6531366E2,1.4784427E4,6.055387E2,1.59775E2,1.2338288E4,2.446139E3,5.776369E2,2.7901793E1,4.099253E1,1.1878246E2,9.985476E3,2.3528127E3,2.4320942E3,1.40446415E1,5.62447E2,1.5189858E1,1.0018893E2,1.8593533E1,9.717176E3,2.6829947E2,1.9533138E2,2.1574812E3,3.3077173E2,2.1013225E3,9.685689E3,3.1486902E1,4.55288E1,2.2277066E2,4.526906E1,1.5006232E2,4.088066E1,2.060442E3,9.597996E3,8.7693306E1,1.7497607E2,4.7794594E1,1.4901029E1,2.5979633E1,2.0114352E3,4.900671E1,8.714436E3,8.835603E2,1.5583311E1,7.210999E1,1.3133044E3,6.9813074E2,6.1555176E3,2.5589177E3,6.953527E2,1.882076E2,2.5433456E1,4.6676533E1,2.881731E2,1.0251313E3,2.3512126E2,4.6300946E2,5.4717914E2,5.6083384E3,2.0899238E3,4.6899384E2,1.5429073E2,3.3916862E1,9.598614E1,1.9218697E2,1.0065305E3,1.8600803E1,4.140532E2,4.8956272E1],"tree_param":{"num_deleted":"0","num_feature":"41","num_nodes":"69","size_leaf_vector":"0"}},{"base_weights":[7.779015E-3,1.1955696E-2,-7.220688E-2,2.358323E-2,-0E0,9.3479715E-3,1.380824E-1,-1.0310909E-2,2.0514202E-1,1.3904166E-2,-6.84596E-2,-2.8840054E-3,-2.500972E-1,-0E0,1.993798E-2,-7.927974E-3,1.1351602E-1,-0E0,-2.7028522E-1,-2.72383E-1,1.803302E-1,6.6276497E-1,-3.120121E-1,-1.990526E-1,4.5079887E-1,-6.2071633E-2,4.1355118E-1,-4.258677E-1,-0E0,-6.818917E-1,-1.4784738E-1,-4.27992E-3,2.4092709E-1,2.513707E-1,8.430379E-1,8.306147E-2,-4.1212872E-1,-4.81908E-2,-6.6919017E-1,5.899939E-1,-4.0829405E-1,-0E0,-1.002932E-1,-0E0,-6.022167E-1,-8.309909E-2,-0E0,2.9696202E-1,-0E0,4.7757205E-1,-0E0,1.2674474E0,3.4065062E-1,-1.7703255E-1,3.5381362E-1,-2.550513E-1,-5.875261E-1,1.9644786E-1,-5.677357E-1,-1.0893389E0,-3.4085426E-1,-7.819308E-4,1.102301E0,-0E0,-5.453735E-1,4.4592E-1,-0E0,3.4619188E-1,-3.0779108E-2,-9.6268547E-1,1.7745969E-1,8.357409E-1,1.4304245E0,-2.1218012E-1,-8.730414E-1,6.153332E-1,3.045792E-1,-0E0,-6.034E-2,-1.7737815E-2,3.4357587E-1,-6.766084E-1,-0E0],"categories":[],"categories_nodes":[],"categories_segments":[],"categories_sizes":[],"default_left":[1,1,0,0,0,0,0,0,0,0,0,0,0,0,0,0,0,0,0,0,0,0,0,0,0,0,0,0,0,0,0,0,0,1,1,0,0,0,0,0,0,0,0,0,0,0,0,0,0,0,0,0,0,0,1,0,0,0,0,0,0,0,0,0,0,0,0,0,0,0,0,0,0,0,0,0,0,0,0,0,0,0,0],"id":34,"left_children":[1,3,-1,5,7,9,-1,11,-1,13,-1,15,17,19,21,23,25,-1,27,29,31,33,35,37,39,41,-1,43,-1,-1,-1,45,47,49,51,53,55,57,59,61,63,-1,-1,-1,-1,-1,-1,-1,-1,-1,-1,-1,-1,-1,65,-1,-1,67,-1,-1,-1,69,71,-1,73,-1,-1,75,77,-1,79,-1,-1,81,-1,-1,-1,-1,-1,-1,-1,-1,-1],"loss_changes":[3.8855538E0,1.8033483E0,0E0,7.826616E0,1.5445122E1,1.400733E0,0E0,1.0104124E1,0E0,6.387484E-1,0E0,2.9829588E0,4.5285702E-1,7.2196976E1,9.6570557E2,6.002238E2,1.1414956E1,0E0,7.0626745E0,1.8668404E1,1.2265596E1,1.02504944E2,1.2077823E2,3.3759125E2,2.4187811E2,1.8859062E-1,0E0,1.5551853E0,0E0,0E0,0E0,